,0,1,2,3,4,5,6,7,8,9,10,11,12,13,14,15,16,17,18,19,20,21,22,23,24,25,26,27,28,29,30,31,32,33,34,35,36,37,38,39,40,41,42,43,44,45,46,47,48,49,50,51,52,53,54,55,56,57,58,59,60,61,62,63,64,65,66,67,68,69,70,71,72,73,74,75,76,77,78,79,80,81,82,83,84,85,86,87,88,89,90,91,92,93,94,95,96,97,98,99
Accelerazione,0.3102417588233948,0.35755854845046997,0.2093128263950348,-0.6535593867301941,0.05566437914967537,-0.09685448557138443,0.9461032748222351,0.045380983501672745,0.8486691117286682,-0.143631249666214,1.036196231842041,-0.869850218296051,-0.11103548854589462,-0.8176107406616211,1.1996709108352661,0.03071950003504753,-1.0396332740783691,-0.9003102779388428,-0.2502100169658661,-0.35045769810676575,-1.6077114343643188,-0.963175892829895,0.39972397685050964,-0.024333510547876358,0.6074028015136719,-0.026507876813411713,-1.7755999565124512,0.09374604374170303,-1.110093355178833,0.7547677159309387,-0.4506920576095581,0.8510322570800781,0.3475518226623535,-0.9756965041160583,0.27528616786003113,0.9566245675086975,-1.6598347425460815,-0.4750466048717499,-0.36275991797447205,-0.40652430057525635,0.4049258828163147,0.043940093368291855,-0.2917056381702423,0.49608704447746277,-0.10955815017223358,1.6632128953933716,-1.1191681623458862,-0.9324209094047546,0.8265995979309082,1.3776212930679321,-1.1590452194213867,-0.5906988382339478,-0.20605647563934326,0.003019355470314622,0.08895005285739899,1.3987942934036255,-0.2308032512664795,1.4207048416137695,-0.7461150884628296,-0.7502360343933105,-0.5667785406112671,-0.3367252051830292,1.3852466344833374,-0.7842349410057068,-0.08841097354888916,-1.149516224861145,-1.692511796951294,0.1918392926454544,0.8090311288833618,-0.8747149705886841,-0.6429782509803772,0.03924603387713432,-0.7321215867996216,-0.7259721159934998,-0.5333123207092285,0.05254129320383072,-0.4535784125328064,-1.5034730434417725,0.13863921165466309,0.2792731821537018,1.0997387170791626,0.15133924782276154,-0.012178003787994385,-0.2796141803264618,1.2913529872894287,0.43620413541793823,0.6077302694320679,-1.4057022333145142,-1.089390516281128,-0.8752439022064209,0.7776063680648804,-1.0554651021957397,0.5194680690765381,-0.02539611980319023,-0.20336486399173737,-0.5778236985206604,0.279779314994812,0.5250008702278137,-1.4115238189697266,-0.13251735270023346
Accelerazione di gravità,0.25774019956588745,1.2872134447097778,-0.02518894337117672,-1.3037699460983276,0.14366991817951202,-0.37595152854919434,0.7705139517784119,1.4669969081878662,1.2065249681472778,0.12862709164619446,0.17269308865070343,-0.45892390608787537,-0.2763250768184662,-0.4932993948459625,1.458187222480774,-0.21406888961791992,-0.4859314262866974,-0.6870293617248535,0.08893835544586182,-0.25311192870140076,-2.1420767307281494,-1.8666317462921143,0.7004589438438416,0.3492620289325714,0.3454354405403137,0.3404618799686432,-0.6404166221618652,0.34205058217048645,-0.6421815752983093,0.8499621748924255,1.1246180534362793,0.15315993130207062,1.0140000581741333,-0.15104922652244568,0.38407331705093384,0.7371653318405151,-0.5207495093345642,-0.3375547528266907,-0.972019612789154,-0.4731132388114929,-0.09854075312614441,-0.3757335841655731,-0.7654417157173157,-0.46170589327812195,-0.23802347481250763,1.643115758895874,-0.2967081665992737,-0.6661720275878906,0.3550662696361542,1.364233136177063,-1.0307672023773193,0.16188378632068634,0.421637624502182,0.40631237626075745,0.16418755054473877,0.7006839513778687,0.6889497637748718,0.621803879737854,-0.6242656707763672,-0.7971999049186707,-1.1845922470092773,-0.20804977416992188,1.704238772392273,-0.8637934327125549,0.45220011472702026,-0.6377426385879517,-0.7093637585639954,0.6215712428092957,0.6887209415435791,-0.6968742609024048,-0.597617506980896,0.6322541832923889,-1.6637171506881714,-0.1364385187625885,-1.1058322191238403,-1.058200478553772,0.051490556448698044,-1.4019755125045776,0.337306946516037,-0.08533942699432373,0.847969114780426,-0.6651387214660645,1.3857916593551636,0.04780257120728493,1.7422831058502197,0.5799926519393921,0.10208838433027267,-0.9546297788619995,-0.7244035601615906,-0.153773233294487,1.2511810064315796,-1.430946707725525,-0.3019826412200928,-0.47983402013778687,0.19670498371124268,-0.5304834842681885,0.6174322366714478,0.45760664343833923,-0.7959088683128357,-0.6705321669578552
Addizione,0.32385802268981934,0.2628568410873413,-0.43522050976753235,-2.1138947010040283,-1.0644339323043823,-0.4012674391269684,0.4453132152557373,0.06528661400079727,-0.13404183089733124,-0.07945696264505386,-1.333901286125183,-0.2518084645271301,-0.13117839395999908,0.5418466329574585,2.8320295810699463,0.8477961421012878,-0.6596696376800537,-0.30365869402885437,-0.6833240389823914,0.11342759430408478,0.17058876156806946,-0.849255383014679,1.367150902748108,-0.1498154252767563,-0.6654136776924133,0.7637620568275452,-0.3040766417980194,1.2793042659759521,-1.3537025451660156,0.017749127000570297,0.1613469272851944,-0.32663023471832275,1.099640130996704,0.13361969590187073,-1.212179183959961,0.07488054782152176,0.1740695983171463,-0.9895881414413452,0.264127641916275,-0.3707065284252167,0.6509168148040771,-0.9887700080871582,-0.3762458860874176,0.22627456486225128,-0.09829995781183243,2.076052188873291,-0.5669769048690796,-1.2684515714645386,0.08900369703769684,-1.1941187381744385,-1.2464466094970703,0.007648127619177103,-0.6670698523521423,-0.6105460524559021,0.05389238893985748,-0.3487587869167328,-0.04465758055448532,-0.14215421676635742,1.2360016107559204,-0.9443501830101013,1.6785037517547607,0.5958319306373596,1.3059556484222412,-0.8739341497421265,0.9776565432548523,-0.9711014032363892,-0.8965620994567871,-1.0501824617385864,0.2336931824684143,-0.08720597624778748,-1.2693082094192505,0.2094104140996933,-0.4824909269809723,0.2622641623020172,1.0305759906768799,0.6274437308311462,-0.15285362303256989,-1.4601600170135498,0.20731931924819946,-0.2096804529428482,0.4396726191043854,-0.5757339000701904,1.6469359397888184,0.4825568199157715,0.3174278140068054,1.2121282815933228,0.8521539568901062,-0.5621710419654846,-1.1823431253433228,-0.8191134929656982,1.4264339208602905,-0.2935152053833008,-0.6678987741470337,0.5894893407821655,-0.0495460107922554,0.21474911272525787,1.394091010093689,1.0520187616348267,-0.45664623379707336,-0.411857545375824
Albero di decisione,-0.7131423950195312,0.17198863625526428,-0.31675806641578674,-1.7955851554870605,0.25290730595588684,0.9601208567619324,-0.5729798674583435,0.6507394909858704,0.027973880991339684,-0.8372510671615601,0.37068691849708557,-0.0056528630666434765,-0.5356388092041016,0.3380630910396576,0.8227422833442688,-0.1502862125635147,-1.1106504201889038,0.0817604809999466,0.09592805802822113,-0.724526584148407,-0.3490150570869446,-0.9959321022033691,1.1050058603286743,0.31948959827423096,-0.16720634698867798,-0.2265874445438385,-0.9822633862495422,-0.36680305004119873,-1.084644079208374,0.525242269039154,-0.19898314774036407,-0.29599234461784363,0.6176042556762695,-0.7780598402023315,-0.6678922176361084,0.8632994890213013,-0.2178555130958557,0.39456668496131897,-0.30024823546409607,-0.0278012678027153,0.6777944564819336,0.13497072458267212,0.4662773013114929,0.14752642810344696,0.1380091905593872,0.7148224115371704,0.06460581719875336,-0.8453291058540344,0.029080558568239212,-0.1260433942079544,-0.5840003490447998,-0.37256038188934326,-0.8083153963088989,0.7436416745185852,0.3832125961780548,-0.41928139328956604,0.36304032802581787,-0.4548209607601166,0.4422985315322876,-0.7604144215583801,0.1640775054693222,0.6178817749023438,0.21146178245544434,-0.5755661725997925,0.06512802094221115,-0.6268945932388306,-0.4967677891254425,-0.2606959342956543,0.5932106971740723,-0.5376746654510498,-0.04820695519447327,0.19804757833480835,-0.1876896470785141,0.7337433099746704,-0.034248143434524536,0.5514832139015198,-0.5863785743713379,-1.3345136642456055,-0.6259701251983643,0.21298401057720184,0.4073704183101654,0.06710092723369598,-0.26900848746299744,0.488063782453537,0.36867570877075195,0.02053317055106163,0.3228354752063751,-0.4628574848175049,-0.8156650066375732,-0.16507640480995178,0.4377165734767914,-0.4698694348335266,-0.5829200744628906,0.5708932280540466,-0.22207605838775635,0.539337158203125,0.8054139614105225,0.041164007037878036,0.28600820899009705,-0.4569609463214874
Algebra,0.4318420886993408,1.3455922603607178,0.8629691004753113,-1.9699900150299072,-1.2816516160964966,-1.1164829730987549,0.3543422818183899,0.1364573985338211,0.4367719292640686,0.3434629738330841,-0.18339121341705322,-0.3744688928127289,0.01418179553002119,0.04533139243721962,0.6470718383789062,0.36366212368011475,-1.5474510192871094,-0.6004050374031067,-0.775048553943634,-0.5792642831802368,0.17677851021289825,-0.29055389761924744,1.094220757484436,-0.8687067031860352,-0.24425798654556274,0.6475334167480469,0.23079058527946472,-0.7774739861488342,-2.264397382736206,0.11659634113311768,0.09449323266744614,0.06081267073750496,0.013793375343084335,1.3432949781417847,-0.6691282987594604,0.47945135831832886,0.6149223446846008,-0.23844927549362183,-0.286945641040802,0.7161126732826233,0.3252768814563751,-0.8004275560379028,0.6938257813453674,-0.6324314475059509,0.4117657542228699,1.5649168491363525,-0.08840396255254745,0.11994998157024384,0.5636414289474487,-0.30603188276290894,-0.5421551465988159,0.23840570449829102,-0.02077922783792019,1.0670815706253052,0.7096654772758484,0.2700660824775696,-0.6868985295295715,-0.3505594730377197,1.3893089294433594,-0.901220440864563,1.0693135261535645,0.1122773215174675,1.447426676750183,0.3161531090736389,1.2395161390304565,-0.4734448492527008,0.05230989307165146,-1.2822973728179932,0.7680312395095825,-0.6345555782318115,0.13019265234470367,1.1190810203552246,-0.6791986227035522,0.38291284441947937,0.4009232521057129,0.009191217832267284,-0.9714444875717163,-1.0631197690963745,0.49077609181404114,0.34319770336151123,-0.07602428644895554,-1.0062068700790405,0.18787629902362823,-0.4603957533836365,-0.024500351399183273,0.377208948135376,0.8348122239112854,-1.8379271030426025,-1.675262451171875,0.32190820574760437,1.5077660083770752,-0.13965408504009247,-1.0044432878494263,0.833909809589386,-0.7726057767868042,0.12120719999074936,1.0535426139831543,2.2500438690185547,-0.3355156183242798,0.6307083964347839
Algoritmo apriori,0.0,0.0,0.0,0.0,0.0,0.0,0.0,0.0,0.0,0.0,0.0,0.0,0.0,0.0,0.0,0.0,0.0,0.0,0.0,0.0,0.0,0.0,0.0,0.0,0.0,0.0,0.0,0.0,0.0,0.0,0.0,0.0,0.0,0.0,0.0,0.0,0.0,0.0,0.0,0.0,0.0,0.0,0.0,0.0,0.0,0.0,0.0,0.0,0.0,0.0,0.0,0.0,0.0,0.0,0.0,0.0,0.0,0.0,0.0,0.0,0.0,0.0,0.0,0.0,0.0,0.0,0.0,0.0,0.0,0.0,0.0,0.0,0.0,0.0,0.0,0.0,0.0,0.0,0.0,0.0,0.0,0.0,0.0,0.0,0.0,0.0,0.0,0.0,0.0,0.0,0.0,0.0,0.0,0.0,0.0,0.0,0.0,0.0,0.0,0.0
Algoritmo genetico,-0.04073517769575119,0.17783842980861664,0.24542009830474854,-1.6060786247253418,0.18361468613147736,1.692845106124878,-0.7065967917442322,0.44012051820755005,0.7553413510322571,-0.3855002820491791,0.4424617290496826,0.07392080873250961,-1.1573125123977661,-0.5471375584602356,0.4671863913536072,0.6218416690826416,-1.4734015464782715,-0.39764928817749023,0.41734012961387634,-0.37435802817344666,-0.5772009491920471,-1.2343615293502808,0.8406687378883362,0.5942447781562805,-0.6770681142807007,-0.058708976954221725,-0.7448984384536743,-0.6182654500007629,-1.5293476581573486,0.27200496196746826,-1.0946553945541382,0.28394508361816406,0.8187448382377625,-0.7191390991210938,-1.453220248222351,0.31737157702445984,-0.15370003879070282,0.2678539752960205,-0.4085439443588257,0.20971572399139404,0.6838263273239136,-0.018462980166077614,0.25231146812438965,-0.2680519223213196,0.5580325126647949,1.063299536705017,0.8003916144371033,-0.6056098341941833,-0.3166652321815491,0.009675194509327412,-0.7111907005310059,-0.6659413576126099,-1.1327403783798218,0.5153549313545227,1.161016821861267,-0.184864804148674,-0.4730530381202698,-0.8895148038864136,0.6281530857086182,-0.7693312168121338,-0.28042253851890564,-0.1449068784713745,0.327536940574646,-0.6242174506187439,0.15607964992523193,-1.3480699062347412,-0.1462506651878357,-0.1740710735321045,0.4682394862174988,-0.10329043865203857,-0.22005295753479004,0.09689919650554657,0.2432715743780136,0.8081580996513367,-0.20262011885643005,0.7388420104980469,-0.0019043060019612312,-1.4470624923706055,-0.3978213667869568,-0.1547086536884308,0.7432166337966919,0.19389604032039642,0.05496395379304886,0.12864454090595245,0.006437266711145639,-0.1851450353860855,1.0543057918548584,-0.5023574233055115,-1.744492530822754,-0.4499649107456207,0.7934449911117554,0.36588454246520996,-0.44981297850608826,0.8205400109291077,0.11869870871305466,0.6996119022369385,0.4382379651069641,0.4732622802257538,-0.13576923310756683,-0.7331877946853638
Altezza (acustica),1.368741750717163,0.3168855607509613,-0.42505672574043274,-1.1352870464324951,0.7954812049865723,-0.4866478145122528,1.156365990638733,0.9396194815635681,-0.10494664311408997,0.3730427622795105,0.44354939460754395,-1.738168478012085,0.30684027075767517,0.7003246545791626,1.049257755279541,0.39897748827934265,-0.5827047824859619,0.3392634093761444,0.6046319603919983,-0.5528174638748169,0.6521638631820679,-0.2537881135940552,1.3110905885696411,-0.23352383077144623,-0.5100984573364258,-0.19412295520305634,-0.05444362387061119,-0.8432073593139648,-0.9356465339660645,0.6375095844268799,0.7721876502037048,0.8914744853973389,0.8651259541511536,0.21984823048114777,-0.5654296875,0.35068783164024353,-0.526298463344574,0.13640129566192627,-0.5681397318840027,-0.16136577725410461,1.254855751991272,0.7978929877281189,-0.32846179604530334,0.4684022068977356,0.4434141218662262,1.9172468185424805,-0.434049516916275,-0.7492650747299194,0.8143512010574341,-0.6132577061653137,-1.1347039937973022,-0.5010884404182434,0.6203333139419556,1.1704647541046143,1.4078794717788696,0.48825299739837646,1.278242826461792,-0.17858175933361053,0.4892594814300537,-0.8218260407447815,0.15025152266025543,1.4657495021820068,0.7320988178253174,-1.07413911819458,0.29724738001823425,-0.14438098669052124,-1.8114393949508667,0.25837066769599915,0.3093733787536621,-0.3886655569076538,-0.9741170406341553,1.3925243616104126,0.15552109479904175,-0.32861328125,-0.5289247035980225,0.14454428851604462,-0.6774339079856873,-1.411092758178711,0.9901958107948303,0.9983457922935486,-0.7647658586502075,-0.5168001055717468,0.7597997784614563,0.13246150314807892,0.8506088852882385,-0.9031941890716553,0.134256511926651,-1.20988929271698,-1.3326891660690308,1.8245012760162354,0.5764589309692383,-0.2499767690896988,-0.20001298189163208,1.1082868576049805,0.2753060758113861,1.6980735063552856,1.0024986267089844,1.3511897325515747,-0.5485664010047913,0.24587149918079376
Amperometro,-0.24182547628879547,1.9118393659591675,0.5127381682395935,-0.5670818090438843,0.5787603259086609,-0.8890713453292847,1.0911122560501099,1.1577661037445068,-0.7202118039131165,0.6018319129943848,-0.1523081213235855,-0.2820475697517395,-0.6349617838859558,-0.44092947244644165,0.7525171041488647,0.9181687831878662,-1.2330968379974365,-0.6387025117874146,-0.1761544942855835,-0.9443206191062927,-0.16108112037181854,0.9646639823913574,0.4697791039943695,0.633525550365448,-0.9714874029159546,0.1833481341600418,-0.9075190424919128,-0.20289666950702667,-0.9652491807937622,0.7365522384643555,1.045458436012268,0.3614443242549896,0.2057582587003708,0.563068687915802,-0.3273220956325531,0.6929588913917542,-0.8539448976516724,0.17191599309444427,-0.7541455030441284,0.2347629964351654,1.160725712776184,1.1108982563018799,1.149642825126648,0.9320482611656189,-0.8557782769203186,1.5717523097991943,-0.04568945989012718,-1.392900824546814,-0.1937616467475891,0.24408665299415588,-0.282998263835907,-0.36220744252204895,-0.0858817771077156,0.021282684057950974,0.9199472665786743,-0.29639607667922974,0.5556795597076416,1.7773557901382446,-1.3691203594207764,-0.3540157079696655,-0.5654460191726685,0.7162503004074097,-0.046710431575775146,0.062266550958156586,0.19040359556674957,-0.9750477075576782,-0.3255006968975067,-0.7076944708824158,1.284651756286621,0.09295139461755753,-0.4349254369735718,0.8295025825500488,0.05367619916796684,-0.5678269863128662,0.20733694732189178,0.0035388744436204433,-0.6091554760932922,-1.4690468311309814,-0.38645726442337036,-0.7662470936775208,-0.05608376860618591,-0.1834326535463333,-0.1496000587940216,1.0332629680633545,0.4536550045013428,-0.04505842924118042,0.7660744786262512,-1.8093924522399902,-0.7265374660491943,0.19662263989448547,1.0499968528747559,-0.2858958840370178,-0.3236679434776306,0.5304312705993652,-0.04539420083165169,-0.21152091026306152,1.1219351291656494,-0.17529970407485962,-0.9222663044929504,0.22532932460308075
Ampiezza,0.9399707317352295,0.32052987813949585,0.06249986216425896,-1.163367748260498,-0.020380442962050438,-1.6922969818115234,1.6634817123413086,0.3335900902748108,1.3231327533721924,-1.2607340812683105,-0.2114519476890564,-0.30859503149986267,-0.33472922444343567,0.11101497709751129,1.3786433935165405,-0.06417978554964066,-0.511221170425415,-0.4758155047893524,-0.1588328778743744,-0.7443121671676636,0.029492763802409172,-0.6198676824569702,0.9649226069450378,1.0719720125198364,-0.3759583830833435,-0.67488694190979,-1.0206928253173828,0.0505872443318367,-0.280894011259079,1.252603530883789,0.30439695715904236,0.39944419264793396,0.6855451464653015,-0.43508362770080566,-0.42115673422813416,0.8317579030990601,-0.9982059597969055,0.7431185245513916,-0.7947447896003723,-0.5566651225090027,1.4145985841751099,-0.4300081133842468,-1.0562070608139038,0.385842502117157,-0.5588797330856323,0.7140278816223145,-0.03904562070965767,-1.5289736986160278,0.27768269181251526,1.1239948272705078,-1.8432610034942627,-0.46949508786201477,-1.058553695678711,-0.42459431290626526,1.093031883239746,0.5644358396530151,0.5085045695304871,0.5825015902519226,0.10152608901262283,-0.11380579322576523,0.12666210532188416,0.3247147500514984,-0.24532198905944824,-0.721943199634552,0.3579772710800171,-0.6092121005058289,-0.6876230835914612,-0.60490483045578,0.6225793957710266,-0.2458796501159668,-0.2238989770412445,1.3315975666046143,0.753105640411377,-0.6613219380378723,-0.5012930035591125,0.06887409090995789,-0.29198014736175537,-1.6342849731445312,0.8476128578186035,0.5738286375999451,0.29584622383117676,-0.35304179787635803,0.661409854888916,0.15185146033763885,1.8766040802001953,-0.49446189403533936,0.9721178412437439,-1.4481955766677856,-1.6703640222549438,-0.13519635796546936,1.2232189178466797,0.32941991090774536,-0.3800713121891022,0.6048476099967957,-0.3976365029811859,0.4811684489250183,0.6832684278488159,0.0007694290252402425,-0.3876674175262451,0.08692276477813721
Analisi dei dati,-0.24126224219799042,0.20137223601341248,0.19506962597370148,-1.53787362575531,0.061131883412599564,0.6451914310455322,-0.7901653051376343,0.5435327887535095,0.9721450805664062,-0.8434205055236816,0.22350411117076874,0.6733330488204956,-0.13522469997406006,0.903772234916687,0.862326979637146,-0.09475725889205933,-1.431091070175171,-0.20889264345169067,-0.18452847003936768,-0.08253943920135498,-0.25516965985298157,-0.29011639952659607,0.9293724894523621,0.7240287065505981,-0.2834058403968811,0.1280098557472229,-0.7095441222190857,0.0584886409342289,-1.2433303594589233,0.17229527235031128,-0.32857221364974976,-0.167881578207016,-0.14090508222579956,-0.5916695594787598,-0.5866663455963135,-0.1596004068851471,-0.3890995681285858,-0.6558862328529358,-0.2619730830192566,-0.7707196474075317,0.16175203025341034,0.48274660110473633,-0.07994478940963745,0.7722489833831787,0.6039148569107056,0.526986837387085,0.24096663296222687,-0.996037483215332,0.293379008769989,0.12228534370660782,-0.390332967042923,-1.0238053798675537,-0.25875818729400635,0.5991068482398987,0.41471588611602783,-0.23610258102416992,-0.26702767610549927,0.05620110034942627,0.310271292924881,0.36188384890556335,0.3615252673625946,0.6145831346511841,0.3731224238872528,-0.8082987070083618,0.38290610909461975,-0.5726341009140015,-0.47334158420562744,-0.4490330219268799,0.8321642875671387,-0.03216187655925751,-0.34921324253082275,0.18546658754348755,-0.6345347762107849,-0.06488646566867828,-0.09943650662899017,0.31482985615730286,-0.41123315691947937,-0.8190361857414246,-0.41953590512275696,-0.5665264129638672,0.21893097460269928,0.19443567097187042,-0.38387686014175415,-0.055595360696315765,-0.19747193157672882,0.024456003680825233,0.8559955954551697,-1.2776020765304565,-0.4831874370574951,0.3207859992980957,0.6358579993247986,-0.39149224758148193,-0.1788264960050583,0.36553382873535156,-0.35364896059036255,-0.19539324939250946,0.7127403616905212,0.08175185322761536,0.4644378125667572,-0.2181977778673172
Analisi della regressione,-0.8296797871589661,0.22977152466773987,-0.3842609226703644,-1.9152207374572754,0.49191516637802124,1.2582271099090576,-1.3021730184555054,0.7700031399726868,0.23903147876262665,-0.7883444428443909,0.8169944286346436,-0.23258255422115326,-0.21029545366764069,0.9670945405960083,1.5098607540130615,-0.322640061378479,-1.6340150833129883,-0.46130624413490295,-0.05820775777101517,-0.29889610409736633,-1.0633400678634644,-1.1651203632354736,0.990074872970581,-0.2189028114080429,-0.6355664730072021,-0.11323415488004684,-0.536949634552002,0.07376442104578018,-0.26859432458877563,0.8588389158248901,-0.08619965612888336,-0.11502334475517273,0.6437569856643677,-0.23711572587490082,-1.2101993560791016,0.5680006742477417,-0.2256016880273819,-0.19388629496097565,-1.1516928672790527,-0.37174099683761597,0.17241403460502625,-0.09302659332752228,-0.0619579441845417,-0.23726890981197357,-0.09216085821390152,1.5225026607513428,0.2316850870847702,-0.7718069553375244,-0.15080097317695618,0.2247878909111023,-1.867686152458191,-0.997160792350769,-0.9441863298416138,0.3471670150756836,0.6799274682998657,-0.0915105864405632,1.1533927917480469,-0.2637505829334259,-0.2199482023715973,-0.07183761149644852,-0.11129407584667206,1.1377023458480835,0.8662828207015991,-0.11636647582054138,1.0925930738449097,0.09780949354171753,0.028258677572011948,-0.2930446267127991,0.7356352210044861,-0.39248839020729065,-0.11566029489040375,-0.019264986738562584,-0.7711045145988464,0.2573739290237427,-1.1126590967178345,-0.04592595994472504,-1.49622642993927,-0.8670339584350586,-0.7099574208259583,-0.5596991777420044,0.316733717918396,-0.7327495813369751,-0.011957508511841297,0.23975065350532532,0.6695290803909302,0.1267484873533249,1.068244218826294,-1.6520881652832031,-0.8126838803291321,0.00870604533702135,1.4680399894714355,-0.07132849097251892,-0.3562160134315491,-0.43596401810646057,-0.05667005106806755,0.7177829146385193,0.9464385509490967,0.054926589131355286,0.3853796422481537,0.2591722011566162
Analisi delle componenti principali,-0.26920610666275024,0.32199937105178833,-0.08873996138572693,-1.9747669696807861,0.4208487272262573,1.5405820608139038,-0.26546040177345276,0.6440095901489258,1.0739383697509766,-0.737858235836029,-0.3411678969860077,-0.4001005291938782,-0.543188750743866,0.3961713910102844,1.4038687944412231,-0.1164913922548294,-1.1664912700653076,-0.06564553081989288,0.038104571402072906,-0.4785572290420532,-0.05734884366393089,-0.9407588839530945,0.6163247227668762,-0.013690220192074776,-0.5789672136306763,0.09931325912475586,-0.48119986057281494,-0.28834933042526245,-0.07625704258680344,0.15752112865447998,0.4384627044200897,-0.13861802220344543,0.23192167282104492,0.03654281049966812,-1.3752098083496094,0.19251146912574768,-0.8312663435935974,-0.6279306411743164,-0.016867181286215782,-0.08569947630167007,-0.22343666851520538,-0.22701209783554077,0.7960904240608215,0.49387919902801514,0.2542423605918884,0.8523803353309631,-0.5426623225212097,-1.1325985193252563,0.4616597294807434,0.06023905798792839,-0.6312276124954224,-0.8256081938743591,-0.7715752124786377,0.46454688906669617,-0.1328684538602829,-0.406924307346344,0.6747516393661499,0.25737714767456055,0.46817031502723694,0.19757136702537537,-0.2421867549419403,1.7286018133163452,0.9628127217292786,-0.7898193001747131,0.2603295147418976,0.6069027185440063,-0.3489772081375122,-0.5604792833328247,0.7214235067367554,-0.33224791288375854,0.30622050166130066,0.052274204790592194,-0.06274823844432831,0.28965696692466736,-0.6908148527145386,0.31200069189071655,-0.3912312090396881,-1.3882871866226196,-0.46682724356651306,-0.40936774015426636,-0.5076090097427368,-0.6955707669258118,0.22856275737285614,-0.19626416265964508,0.35970762372016907,-0.25579509139060974,0.8268014192581177,-1.89055335521698,-0.8693180084228516,-0.8593138456344604,0.7896835803985596,-0.9268101453781128,-0.7258468270301819,0.37446466088294983,0.23523332178592682,-0.08616437017917633,0.2380569577217102,-0.010284172371029854,0.4197988212108612,0.4906727075576782
Analisi matematica,-0.7131859064102173,0.4793091416358948,1.3097010850906372,-1.3084982633590698,-0.38491004705429077,-1.159756064414978,-0.19316354393959045,0.062481630593538284,0.34600210189819336,0.13627243041992188,-0.09925054013729095,0.5087097883224487,-0.8485364317893982,-0.2855736315250397,1.5645736455917358,1.2347320318222046,-1.4733481407165527,-0.288966566324234,0.013961723074316978,-0.6337814927101135,-0.6707549691200256,-0.47165584564208984,1.4729878902435303,-0.25278517603874207,-0.17385323345661163,-0.18949151039123535,0.0974041223526001,-0.2965407073497772,-1.6568894386291504,0.7090330123901367,-0.060466498136520386,-0.5320709943771362,0.6209974884986877,0.05749417841434479,-1.3134080171585083,-0.48013150691986084,-1.1298668384552002,-0.0040810126811265945,0.029740331694483757,-0.5218234658241272,-0.33658623695373535,-0.3128453493118286,0.2933320999145508,-0.598950207233429,-0.08008123934268951,1.5183470249176025,0.05354462191462517,-1.1353132724761963,0.2557315230369568,0.06184491515159607,0.20875892043113708,-0.12705232203006744,-0.22264766693115234,-0.13281311094760895,0.514943540096283,0.9604958891868591,-0.09859328716993332,-0.13142243027687073,1.6329421997070312,-0.685304582118988,0.31231391429901123,0.6441618800163269,0.8491247296333313,0.5001996755599976,-0.051898885518312454,-1.301093578338623,-0.7666046619415283,-1.0928893089294434,1.1785862445831299,-1.4328722953796387,-0.9289097189903259,0.5519117712974548,-0.8190826177597046,0.510492742061615,-0.7916120886802673,0.20830990374088287,-1.6552413702011108,-1.1079522371292114,0.21212255954742432,-0.150194451212883,0.6011135578155518,-1.5489068031311035,-0.32820215821266174,0.3166842758655548,-0.0001684810995357111,0.18145130574703217,0.12293652445077896,-1.138481855392456,-1.4466238021850586,-0.980228841304779,0.7280856966972351,-0.49078109860420227,-0.835128128528595,0.10727789998054504,0.40218496322631836,-0.29807403683662415,1.5487858057022095,1.9992626905441284,0.3641187846660614,0.7786785364151001
Angolo,-0.33682602643966675,0.15090687572956085,0.2718898057937622,-1.3143481016159058,0.5509171485900879,-1.6351487636566162,1.3371680974960327,-0.4613589346408844,0.5049747228622437,0.6534266471862793,0.28654560446739197,-1.6586521863937378,0.4357014000415802,0.2790434956550598,0.6744627356529236,0.8046091794967651,-0.7755647897720337,0.14941245317459106,0.5121219754219055,-1.3895912170410156,-0.37089329957962036,0.03365343064069748,-0.36193814873695374,0.09362181276082993,-0.09377915412187576,0.18826605379581451,-1.323259711265564,-0.047372426837682724,-0.6530219316482544,1.0066685676574707,-0.1790217161178589,1.4200890064239502,0.2785172462463379,0.1893419623374939,0.3258917033672333,0.1899857521057129,-0.5536168813705444,0.05907183513045311,-0.5899752378463745,-0.7474724054336548,0.17498725652694702,-0.17428945004940033,0.8631259202957153,1.209218978881836,-0.39494210481643677,2.3452792167663574,-1.3469364643096924,-1.066733479499817,0.3935118019580841,1.0410475730895996,-1.4872119426727295,0.7603799700737,-0.3853173851966858,0.8822618722915649,0.44030675292015076,0.9579346776008606,-0.5395740866661072,-0.30167633295059204,0.06086389720439911,-0.4886283576488495,-0.6241742968559265,0.2122984379529953,0.7838261723518372,-1.4252817630767822,0.5613093376159668,-1.0276540517807007,-0.22155271470546722,0.03270264342427254,-0.22090177237987518,-0.30525797605514526,-0.19366562366485596,1.7229000329971313,-0.9762097001075745,-0.38530758023262024,-0.3627472519874573,0.728696346282959,-0.6798298358917236,-1.7300201654434204,0.4537176787853241,0.11056401580572128,0.30876752734184265,-1.7985351085662842,0.371579647064209,-0.10244739800691605,1.5771592855453491,0.1699831336736679,1.0508207082748413,-0.4653443992137909,-0.09548057615756989,-0.23414857685565948,0.762525737285614,-0.8085706233978271,-1.1599689722061157,0.5315908193588257,0.009144009090960026,0.011741897091269493,1.188088297843933,0.5130196213722229,-0.5869434475898743,-0.05837099999189377
Angolo retto,0.28740695118904114,-0.18184588849544525,0.5347986221313477,0.14549121260643005,-0.33521050214767456,-0.5470940470695496,0.023447327315807343,-0.2630797326564789,1.061731219291687,1.116684079170227,-0.6067440509796143,-1.206343412399292,0.7563170194625854,-0.6939936280250549,0.5720226168632507,0.2202485054731369,-0.745199978351593,0.30617138743400574,-0.7595542073249817,-1.1526310443878174,-1.4107099771499634,-0.5331066250801086,0.30949172377586365,0.34653520584106445,-1.0784028768539429,0.5434563159942627,-1.74100661277771,0.42485737800598145,-0.4353310167789459,1.0589293241500854,-0.012839988805353642,0.5254868268966675,-0.2732391655445099,1.179159164428711,-0.053428150713443756,0.19287921488285065,-0.09953748434782028,-0.5770382881164551,-0.44944900274276733,0.4787251055240631,0.10980433225631714,-0.7842186093330383,-0.2888698875904083,1.0007041692733765,-0.8668411374092102,2.663083553314209,-0.03492874652147293,-0.6705791354179382,-0.921741783618927,0.6812479496002197,-0.7033603191375732,1.4647895097732544,-0.5437895059585571,-0.44166919589042664,1.2277694940567017,1.0220235586166382,0.5134325623512268,-0.6376623511314392,0.3278282880783081,-0.2953420579433441,-1.4532300233840942,-0.0687628984451294,1.1825562715530396,-1.652616262435913,0.7841920852661133,-1.140539526939392,0.19525331258773804,0.30813539028167725,-0.2696518301963806,-1.039023995399475,0.06738993525505066,1.267093300819397,-0.020565437152981758,-0.23677855730056763,-1.3686110973358154,0.31855833530426025,0.476726233959198,-1.4777796268463135,0.5235347747802734,0.19523923099040985,1.3849817514419556,-0.8650936484336853,1.5499924421310425,0.4588669240474701,1.3322731256484985,0.408322811126709,0.1788274198770523,-1.321783185005188,-1.2274415493011475,-0.6767905950546265,1.862924337387085,-0.6378923058509827,-1.3898862600326538,0.44522562623023987,0.044466108083724976,-0.13221751153469086,0.2984705865383148,1.0625126361846924,-0.990256667137146,-1.0444936752319336
Apprendimento automatico,-0.6741268634796143,-0.19224178791046143,0.48069673776626587,-2.320321798324585,1.2982126474380493,1.3916516304016113,-0.6358227133750916,0.7575075626373291,0.45002293586730957,-1.3748303651809692,0.1771366447210312,1.0085865259170532,-1.3246866464614868,0.2899952232837677,1.517585039138794,0.5311546325683594,-1.3300222158432007,-0.7420689463615417,0.20268061757087708,-0.5272987484931946,-0.7497965097427368,-1.7259745597839355,1.0563973188400269,0.48223039507865906,-0.3784904181957245,-0.5081101655960083,-0.9960368871688843,-0.8942354917526245,-1.7315633296966553,0.5230868458747864,-0.10371195524930954,-0.39417293667793274,-0.6407170295715332,-0.47767844796180725,-0.39578431844711304,0.44593295454978943,0.08418504148721695,0.8273411393165588,-0.67978835105896,0.715466320514679,1.0839734077453613,0.06189229339361191,-0.19485263526439667,-0.4569462239742279,-0.10329020768404007,0.27277672290802,0.1586049497127533,-0.4824453890323639,0.013873214833438396,0.07484430819749832,-0.24605223536491394,-0.4926341772079468,-0.5413084626197815,-0.03719146549701691,1.039097547531128,-0.2545096278190613,0.05614372342824936,-0.36135226488113403,0.2282366156578064,0.05026736855506897,0.5594152808189392,-0.4536439776420593,0.8129428029060364,-0.7445783019065857,-0.18842731416225433,-0.09720674902200699,-0.4336639642715454,-0.47162988781929016,1.2195243835449219,-0.09409289062023163,-0.39191702008247375,0.6302981972694397,-0.6960901618003845,0.676453709602356,-0.05480591207742691,-0.2186499387025833,-0.6111132502555847,-1.3142377138137817,-1.6988484859466553,0.40183091163635254,0.31418219208717346,0.3026926517486572,-1.0472606420516968,0.37509697675704956,0.23455049097537994,0.029592253267765045,1.3415952920913696,-1.572450041770935,-2.10170316696167,0.016292009502649307,1.1599966287612915,-0.2903189957141876,-1.2017680406570435,0.13427361845970154,0.6140000224113464,0.9378195405006409,1.1802325248718262,0.39155247807502747,0.48194921016693115,-0.02912243641912937
Apprendimento ensemble,0.0,0.0,0.0,0.0,0.0,0.0,0.0,0.0,0.0,0.0,0.0,0.0,0.0,0.0,0.0,0.0,0.0,0.0,0.0,0.0,0.0,0.0,0.0,0.0,0.0,0.0,0.0,0.0,0.0,0.0,0.0,0.0,0.0,0.0,0.0,0.0,0.0,0.0,0.0,0.0,0.0,0.0,0.0,0.0,0.0,0.0,0.0,0.0,0.0,0.0,0.0,0.0,0.0,0.0,0.0,0.0,0.0,0.0,0.0,0.0,0.0,0.0,0.0,0.0,0.0,0.0,0.0,0.0,0.0,0.0,0.0,0.0,0.0,0.0,0.0,0.0,0.0,0.0,0.0,0.0,0.0,0.0,0.0,0.0,0.0,0.0,0.0,0.0,0.0,0.0,0.0,0.0,0.0,0.0,0.0,0.0,0.0,0.0,0.0,0.0
Aquilone (geometria),0.18020416796207428,0.1277022361755371,0.24922539293766022,-0.3427504003047943,0.0017126707825809717,-0.7958008050918579,0.007336381357163191,-0.02354476787149906,0.31856289505958557,-0.16768485307693481,-0.2155194729566574,-0.974096417427063,0.5739569664001465,0.31949663162231445,0.4815633296966553,0.23367951810359955,-1.2009053230285645,-0.7392609715461731,-0.01671348512172699,-0.6032534241676331,-0.28343817591667175,0.13463285565376282,0.03082733042538166,0.3800448179244995,-0.7519760727882385,-0.46708470582962036,-0.9260810613632202,0.2845419943332672,-1.1159979104995728,0.7135193943977356,0.09538322687149048,0.5259993672370911,-0.8528150320053101,0.6042368412017822,-0.3229416310787201,-0.0627666488289833,0.05092686414718628,-0.15542840957641602,0.15170429646968842,-0.17637723684310913,-0.014516196213662624,-0.3583163022994995,0.42951062321662903,0.7301104664802551,-0.2983483076095581,1.6991808414459229,-0.8287665843963623,-0.3883693814277649,-0.37392568588256836,-0.47127974033355713,-0.5949899554252625,-0.12691730260849,-1.2039989233016968,0.7235752940177917,0.6622389554977417,-0.2940600514411926,-0.40597736835479736,-0.0328792966902256,0.5305205583572388,-0.5530229806900024,-0.040587302297353745,0.740976095199585,1.0463424921035767,-0.5700868368148804,0.3371275067329407,-0.5759453773498535,-0.37757495045661926,0.18688838183879852,-0.08358254283666611,-0.012326903641223907,0.09397941827774048,1.1001780033111572,-0.0076158479787409306,0.3184368908405304,0.000889128481503576,0.09157184511423111,-0.07251280546188354,-1.0480009317398071,0.31757575273513794,0.38736802339553833,-0.02514842338860035,-0.6374363899230957,0.2812771201133728,0.0006445730105042458,0.5578996539115906,0.33062615990638733,-0.03188905492424965,-0.46794891357421875,-0.19033421576023102,-0.12241579592227936,0.9565963745117188,-0.35721370577812195,-0.960069477558136,1.1130610704421997,0.30530837178230286,-0.49403637647628784,0.8233217000961304,0.55083167552948,-0.5813635587692261,-0.2939077317714691
Arco (geometria),-0.04039052128791809,-0.265686571598053,-0.2876940667629242,-0.9123336672782898,-0.04658959433436394,-0.007077833637595177,1.146905541419983,0.3188633620738983,-0.1827543079853058,-0.17805887758731842,-0.03231261670589447,-1.0636844635009766,-0.2990753948688507,0.36150580644607544,0.19417594373226166,0.9323139786720276,-1.0917667150497437,-1.7784206867218018,-0.4883144795894623,-1.3516138792037964,-0.8279792070388794,-0.13008204102516174,-0.34999287128448486,-0.2796320617198944,-0.6124076843261719,-0.7551348805427551,-0.7460265755653381,0.5465129613876343,-1.0653338432312012,1.6859444379806519,-0.4817405045032501,0.8444972634315491,-0.11110582947731018,-0.3822087347507477,0.01963057555258274,0.45914286375045776,-0.9264881014823914,0.3930690288543701,-0.14190511405467987,-0.5177701115608215,0.4579724669456482,0.17135308682918549,0.4265485107898712,1.3843309879302979,-0.42605966329574585,1.7942036390304565,-0.7396320700645447,-1.1345679759979248,-0.21208222210407257,0.8982095718383789,-2.3666999340057373,0.6384788155555725,-0.56954026222229,0.5059027075767517,0.4257940948009491,0.33000603318214417,-0.5752580165863037,-0.04589514806866646,0.5255545377731323,0.16720522940158844,0.2772437334060669,-0.4377358555793762,0.9193153381347656,-0.9105973839759827,-0.12144332379102707,-0.2413093000650406,-0.749476432800293,-0.039773404598236084,0.4576077163219452,-0.008278874680399895,0.22520150244235992,2.05922269821167,-0.43902692198753357,-0.8948286175727844,-1.1118006706237793,0.5570918321609497,-1.534938931465149,-1.4077123403549194,0.9490486979484558,-0.7304696440696716,-0.06474222987890244,-0.3712765574455261,1.018436312675476,0.012865559197962284,1.4287842512130737,-0.09788116812705994,-0.31087929010391235,-0.23861442506313324,-0.5044662356376648,-0.46556922793388367,1.1653430461883545,-0.13949251174926758,-0.5976998209953308,0.36890846490859985,0.207784503698349,-0.44250527024269104,1.0765939950942993,1.4526185989379883,-0.811057448387146,0.14388182759284973
Area,-0.17299418151378632,-0.10606779158115387,-0.029187114909291267,-0.9941401481628418,0.6380677819252014,-0.14501690864562988,0.3312087059020996,-0.6299228072166443,0.026337068527936935,0.5561696290969849,0.003451006719842553,-1.594613790512085,0.24700161814689636,0.3364811837673187,-0.061127811670303345,0.10473604500293732,-1.6870527267456055,-0.8814621567726135,-0.1831798106431961,-0.047360584139823914,-0.16520023345947266,-0.4811474680900574,0.5428038239479065,0.5524606108665466,0.09240008145570755,0.40055862069129944,-0.9879105687141418,1.4689509868621826,-0.008079925552010536,-0.17223864793777466,0.1628040075302124,1.020853042602539,0.06516296416521072,0.03473103791475296,-1.1021687984466553,0.11386029422283173,-1.268312931060791,-0.6575206518173218,0.6163691282272339,-0.8028002381324768,-0.5335840582847595,-1.9126321077346802,-0.2858278751373291,1.8273892402648926,-0.4857862591743469,0.9687240123748779,-0.9710170030593872,-1.3291757106781006,-0.39203062653541565,-0.23119868338108063,-1.7201935052871704,1.4273738861083984,-0.48127350211143494,0.4983063340187073,1.3005354404449463,1.0607695579528809,-1.4424464702606201,0.9307157397270203,0.49758240580558777,-0.32191601395606995,-0.6494519710540771,-0.2867316007614136,-0.027254940941929817,-1.0957094430923462,-0.2862321734428406,-1.464503526687622,-1.346031904220581,0.22299477458000183,1.02394437789917,-0.1502232402563095,-1.0185257196426392,2.418376922607422,-0.9974221587181091,-0.548492968082428,-1.250373125076294,0.2309579849243164,-1.800216555595398,-0.524617075920105,-0.49544626474380493,0.07148776203393936,0.1620362102985382,-0.3968128561973572,0.317983478307724,-0.1121906116604805,0.9380514025688171,-0.10032946616411209,0.8887624740600586,-0.4588738977909088,0.4409199059009552,0.9746435284614563,1.7271132469177246,0.13715852797031403,-0.15395471453666687,0.897710382938385,0.10153119266033173,0.04361804202198982,1.2317065000534058,-0.04660024866461754,0.06697770953178406,0.20783592760562897
Aritmetica,0.7722705006599426,0.37665221095085144,-0.05785343050956726,-1.555376648902893,-0.33248940110206604,-0.7921808958053589,0.504126787185669,0.15543146431446075,0.843161404132843,1.0421156883239746,-0.4438735544681549,0.521160900592804,-0.49146130681037903,0.9779234528541565,1.2238712310791016,0.45108482241630554,-0.3551676869392395,-0.44012776017189026,-0.19902220368385315,0.045909468084573746,0.0019773473031818867,-0.9618313908576965,0.7182563543319702,-0.5204506516456604,0.9858388304710388,0.7732676863670349,0.21855075657367706,-0.40624743700027466,-1.2614139318466187,0.02453567460179329,-0.21851660311222076,-0.07086063176393509,0.48259180784225464,0.9685781002044678,-0.3231007754802704,-0.3398219048976898,-0.09584523737430573,-0.6212744116783142,-0.4154326915740967,-0.17026934027671814,0.5451470017433167,-0.11724390089511871,-0.11028110980987549,0.140923410654068,0.30964115262031555,1.594987154006958,0.5907055735588074,-0.07753241062164307,0.05440489575266838,-0.31170016527175903,-0.5390238761901855,0.16995109617710114,-0.8299678564071655,0.8234899640083313,0.21824289858341217,0.7500907778739929,-1.1927095651626587,-0.5607495903968811,0.7991916537284851,-0.5119655132293701,1.829291582107544,0.3869524896144867,0.9819393754005432,-0.5926517248153687,0.28009214997291565,-0.020927974954247475,-0.16405946016311646,-0.7528840899467468,0.7364143133163452,-0.7801347970962524,0.09011974930763245,0.6038639545440674,-0.4935845136642456,0.5540341138839722,0.21437737345695496,0.5098091959953308,-0.5159708857536316,-1.2074434757232666,-0.5034178495407104,-0.5121318697929382,0.31678277254104614,-0.3747234046459198,0.34239131212234497,-0.05253274738788605,0.9065991640090942,0.5663806200027466,1.187762975692749,-1.2750977277755737,-1.0070574283599854,0.7760703563690186,1.2172560691833496,0.8332594037055969,-0.9327854514122009,0.9990991353988647,-0.18223217129707336,0.0005432755569927394,0.9156643748283386,1.0446135997772217,-0.879654586315155,-0.17029878497123718
Asintoto,-0.37891319394111633,0.2604526877403259,0.6345811486244202,-0.2892892360687256,0.17518511414527893,-0.8448287844657898,0.4689975678920746,0.6956692337989807,0.9867159128189087,-0.4965367317199707,-0.16258838772773743,-0.6431838274002075,-0.23254631459712982,0.51854008436203,1.3356977701187134,0.6874722242355347,-1.421913504600525,-0.05532931908965111,-0.33272165060043335,-0.6906730532646179,-0.6814993619918823,-0.5961928367614746,0.49448883533477783,0.3705243170261383,0.02579011768102646,-0.34110331535339355,-0.8390061259269714,0.7074938416481018,-1.077885389328003,0.5976338386535645,-0.6377637386322021,0.7079421877861023,0.28102922439575195,-0.014868882484734058,-0.41221746802330017,0.7244833111763,-0.9238312840461731,0.7556902170181274,-0.4417892396450043,0.21764600276947021,-0.5132228136062622,0.606388509273529,0.5415765047073364,0.7855486273765564,-0.10137008130550385,1.0383905172348022,-0.5211345553398132,-1.2930724620819092,-0.6660144329071045,0.744022011756897,-0.8140957951545715,-0.0073321303352713585,-0.1505141407251358,0.5030738711357117,1.3442645072937012,-0.1727784276008606,0.4157809615135193,-0.23694834113121033,0.3217211067676544,-1.1075539588928223,-0.5278393626213074,1.2831032276153564,0.9104697108268738,-0.8343575596809387,1.0670455694198608,-1.085978627204895,0.5766867995262146,0.5690681338310242,-0.06458981335163116,-0.796643853187561,0.8025150895118713,1.0105173587799072,-0.5059331655502319,0.3985934257507324,-0.27871406078338623,0.4282488226890564,-0.6928026676177979,-2.18699049949646,0.12782436609268188,0.127700075507164,1.2384552955627441,-1.5921322107315063,0.3501119613647461,-0.15578609704971313,0.9251663684844971,0.13185694813728333,0.34428882598876953,-0.741222620010376,-1.1164600849151611,-0.04337898641824722,1.9486149549484253,0.019120927900075912,-0.8236397504806519,0.6921472549438477,-0.2873784303665161,-0.23695041239261627,0.8034524917602539,-0.2611510455608368,-0.6981015801429749,-0.06673671305179596
Asse di un segmento,0.15771859884262085,0.18712657690048218,0.47456154227256775,-0.5811591744422913,0.13429301977157593,-0.5048603415489197,-0.44285061955451965,0.18877461552619934,0.3987516462802887,0.12526357173919678,0.286822110414505,-0.7807379961013794,0.2694539427757263,0.052688539028167725,0.9510217905044556,0.10558584332466125,-1.1671028137207031,-0.22565655410289764,-0.26856356859207153,-0.6094138026237488,-0.09748296439647675,-0.6576223373413086,0.20841045677661896,0.4312221109867096,-0.9037514328956604,-0.7713371515274048,-0.5010347962379456,0.21964196860790253,-1.091599464416504,0.8246391415596008,0.14925192296504974,0.10937811434268951,-0.1478281021118164,0.32403960824012756,-0.18342407047748566,-0.24175070226192474,0.1882988065481186,-0.011919807642698288,-0.6073572635650635,-0.4960027039051056,-0.19687464833259583,-0.6508176326751709,0.4350588917732239,0.40201833844184875,-0.4738423228263855,0.8701945543289185,-0.4360411763191223,-0.8301753401756287,-0.28159958124160767,0.17327043414115906,-0.8912625908851624,0.301481693983078,-0.7791723608970642,0.6705647110939026,0.09780095517635345,-0.22160041332244873,-0.056822601705789566,-0.2873501479625702,0.4767088294029236,-0.5620945692062378,-0.21695782244205475,0.5681113600730896,0.5088796615600586,-0.9469628930091858,0.49837833642959595,-0.315396785736084,-0.21964552998542786,-0.19036337733268738,0.2236025333404541,-0.299297571182251,-0.23277677595615387,1.1938267946243286,0.06022713705897331,0.04874870553612709,-0.21313320100307465,0.11269734799861908,-0.9439569711685181,-0.9387152791023254,0.16963215172290802,0.2819211483001709,-0.14964120090007782,-1.0167943239212036,0.6485406160354614,-0.10230109095573425,0.8253482580184937,0.8181281685829163,0.047983016818761826,-0.9346698522567749,-0.2274540513753891,-1.0263973474502563,0.6606069207191467,-0.2724977731704712,-0.5898613333702087,1.0300143957138062,0.5519774556159973,-0.25882378220558167,0.5949823260307312,0.34755149483680725,-0.4523254334926605,-0.17151059210300446
Associatività,0.2377694696187973,-0.016866646707057953,0.09166494756937027,-1.0716700553894043,0.8501638174057007,0.03847605735063553,-0.16460250318050385,-0.5556216835975647,0.6295715570449829,-0.36576369404792786,0.47026312351226807,-0.4766145944595337,-0.6666560173034668,-0.5017231702804565,0.8920215964317322,0.3684923052787781,-0.8746213912963867,-0.5609749555587769,-0.08274080604314804,-0.46614325046539307,-0.9472847580909729,-1.4021438360214233,0.5360934734344482,-0.28240767121315,-0.5101150870323181,-0.44750550389289856,0.03532916307449341,-0.743718147277832,-1.2615456581115723,-0.09013919532299042,-0.17698043584823608,0.3945207893848419,0.7785688042640686,0.3864182233810425,-0.16200456023216248,0.15965448319911957,0.034386325627565384,-0.8330299258232117,0.22649899125099182,-0.2955976128578186,-0.1859673410654068,-0.3433436155319214,0.03061797469854355,0.1657722294330597,0.20925235748291016,0.8444418907165527,-0.7961581349372864,-1.3507506847381592,0.8271716833114624,-0.9939819574356079,-0.563727080821991,-0.612064778804779,-1.5220441818237305,0.30645763874053955,0.38644957542419434,0.03642584756016731,0.24672695994377136,-0.47937679290771484,0.8394989967346191,-0.22511091828346252,0.5372273325920105,0.19756098091602325,1.9267572164535522,-0.8085065484046936,1.1642080545425415,-0.8024206757545471,-0.183709979057312,-1.1663392782211304,0.7981218099594116,-0.9106558561325073,-0.2841953933238983,-0.4688524305820465,0.08618807047605515,0.5235543847084045,0.6304596066474915,0.6219807863235474,-0.13421201705932617,-1.3051154613494873,0.27405408024787903,0.3491637110710144,0.26307985186576843,-1.1188538074493408,0.7583789825439453,0.6317117214202881,0.31138551235198975,0.12714259326457977,0.8169324398040771,-1.5002832412719727,-0.08121634274721146,-0.34705275297164917,0.9636443853378296,0.015218434855341911,-0.5642688274383545,1.0474172830581665,1.1070445775985718,-0.17631015181541443,0.9053637385368347,1.3963732719421387,-0.22560617327690125,-0.5763776898384094
Attrito,0.4037149250507355,0.22729875147342682,-0.045960087329149246,-0.8866037726402283,0.7349758744239807,-0.7028877139091492,0.824890673160553,0.1788308173418045,0.014709404669702053,0.3239329755306244,0.1824730783700943,-1.0239337682724,-0.3752259612083435,-0.91513592004776,0.6178921461105347,0.26444992423057556,-0.2869184613227844,0.027735836803913116,-0.25393781065940857,-0.6583123803138733,-0.725224494934082,-0.19330991804599762,-0.8212431073188782,-0.21093815565109253,0.44753941893577576,-0.20770227909088135,-0.8158712983131409,0.5003625750541687,-0.8470751047134399,1.0671855211257935,-0.5589553117752075,0.8945497274398804,0.538905143737793,0.011657863855361938,-0.8503667712211609,0.568091630935669,-0.928193211555481,0.4588673710823059,-0.48387646675109863,-0.9657492637634277,1.0216602087020874,-0.009322923608124256,-0.3441765308380127,-0.5634372234344482,-0.6736909747123718,0.8514323234558105,-0.7737160921096802,-0.70677649974823,0.15211036801338196,0.2616230547428131,-0.547819972038269,-0.14696559309959412,-0.3661796748638153,-0.969448447227478,0.6902180910110474,0.539857804775238,-0.5516221523284912,0.5159810185432434,0.4614833891391754,-0.9037838578224182,-0.810457170009613,-0.4704190194606781,0.8556734919548035,-0.35859689116477966,-0.21145839989185333,-1.0642949342727661,-0.6194447875022888,-0.054727379232645035,0.37299349904060364,-0.4734765887260437,-0.26509249210357666,0.06004483625292778,-0.6702471971511841,-0.1755908727645874,-0.24290189146995544,0.07188207656145096,0.436796635389328,-1.317488431930542,0.1624860018491745,-0.24481332302093506,0.4966687858104706,-0.8295369744300842,0.5710543990135193,0.21831363439559937,1.1416919231414795,0.7172173261642456,0.30033621191978455,-0.08398067951202393,-0.4796643555164337,0.41533219814300537,1.1584683656692505,-0.27571937441825867,0.2600400149822235,0.8145000338554382,-0.04011715576052666,-0.4986320734024048,-0.27431735396385193,0.6004464030265808,-0.03591503947973251,0.38442572951316833
Auto similarità,-0.5031395554542542,-0.3844533860683441,0.719186007976532,-1.2409595251083374,0.7596793174743652,0.05754171684384346,-0.1454976350069046,0.3565244972705841,0.3187330961227417,-0.6626268029212952,0.13180513679981232,-0.560754120349884,0.01654578559100628,-0.06654024869203568,0.6166096925735474,-0.09055434912443161,-0.8306681513786316,-0.44855615496635437,-0.5414075255393982,-0.41708481311798096,-0.49779146909713745,-0.8296368718147278,0.8635493516921997,0.6895360350608826,-0.8307990431785583,-0.7315187454223633,-0.5308557748794556,0.38449257612228394,-0.4390912353992462,0.5526060461997986,-0.765677809715271,0.6120365858078003,0.6471715569496155,0.36351826786994934,-0.39682528376579285,0.24076971411705017,-0.5291246175765991,0.2607971429824829,-0.20262688398361206,-0.27553117275238037,-0.0683186948299408,0.06167355924844742,0.40568506717681885,0.80723637342453,0.07888959348201752,0.8804610371589661,-0.10831373184919357,-0.18746396899223328,0.5738035440444946,0.07838398963212967,-1.2390304803848267,-0.5104602575302124,-1.8033369779586792,-0.12648341059684753,0.26752281188964844,-0.06629856675863266,-0.12283960729837418,0.12259676307439804,0.4314830005168915,0.08736545592546463,-0.18543969094753265,0.3706051707267761,0.389589786529541,-1.1356855630874634,0.7251776456832886,-0.33411523699760437,-0.40695178508758545,-0.027264632284641266,0.9379710555076599,-0.6193547248840332,-0.6397093534469604,0.30259454250335693,0.7410301566123962,0.7234381437301636,-0.11893066018819809,0.29459139704704285,-0.37377697229385376,-0.5091087222099304,0.7359734177589417,0.18247726559638977,0.936644971370697,-0.677277684211731,-0.1886633336544037,0.003187228925526142,0.7723413705825806,-0.09851279854774475,0.1686796247959137,-0.8086115717887878,-1.156684398651123,-0.41255784034729004,0.47822219133377075,-0.6913613677024841,-1.2804920673370361,1.2190165519714355,0.5758198499679565,-0.36798766255378723,1.0024526119232178,0.4156641960144043,0.22988978028297424,-0.48445481061935425
Bagging,0.0,0.0,0.0,0.0,0.0,0.0,0.0,0.0,0.0,0.0,0.0,0.0,0.0,0.0,0.0,0.0,0.0,0.0,0.0,0.0,0.0,0.0,0.0,0.0,0.0,0.0,0.0,0.0,0.0,0.0,0.0,0.0,0.0,0.0,0.0,0.0,0.0,0.0,0.0,0.0,0.0,0.0,0.0,0.0,0.0,0.0,0.0,0.0,0.0,0.0,0.0,0.0,0.0,0.0,0.0,0.0,0.0,0.0,0.0,0.0,0.0,0.0,0.0,0.0,0.0,0.0,0.0,0.0,0.0,0.0,0.0,0.0,0.0,0.0,0.0,0.0,0.0,0.0,0.0,0.0,0.0,0.0,0.0,0.0,0.0,0.0,0.0,0.0,0.0,0.0,0.0,0.0,0.0,0.0,0.0,0.0,0.0,0.0,0.0,0.0
Base (algebra lineare),-0.1813298463821411,1.45510995388031,0.09781055152416229,-1.4162522554397583,0.6413589715957642,0.7037619948387146,0.2938345670700073,-0.440297931432724,1.4887853860855103,-0.9493392109870911,0.3326163589954376,-0.8421955108642578,0.0323190838098526,-0.5111178755760193,0.4835975468158722,0.46177878975868225,-1.235515832901001,-0.5908278822898865,0.04324601963162422,-0.553289532661438,-0.7360650300979614,-1.2838419675827026,0.4616307020187378,0.23244594037532806,-1.3432809114456177,-0.39072221517562866,-1.109778642654419,0.08787509053945541,-0.7171838879585266,0.5999370813369751,-0.47764378786087036,0.3918125629425049,0.3297143876552582,0.34356772899627686,-1.5485776662826538,0.4259091019630432,-0.8896471261978149,0.030172212049365044,-0.6673030257225037,-0.8067821860313416,0.4413384795188904,-1.2320277690887451,-0.37958472967147827,0.14732453227043152,0.552359402179718,1.2748827934265137,-0.8328511714935303,-0.772782564163208,-0.022715462371706963,-0.36603012681007385,-0.9550269842147827,-0.30178385972976685,-0.8559716939926147,-1.3241373300552368,0.593715488910675,-0.17985334992408752,-0.24865271151065826,-0.30168241262435913,1.413244605064392,-1.1589277982711792,-0.7445555925369263,1.5834375619888306,1.2149888277053833,-1.144615888595581,1.3495075702667236,-1.0119614601135254,-0.22240513563156128,0.051080554723739624,0.4095061123371124,0.4481869041919708,-0.04654603451490402,0.9722640514373779,-0.45634254813194275,0.5675576329231262,0.723648726940155,0.5735057592391968,-1.6975773572921753,-0.9258953928947449,-0.6397671103477478,-0.26269349455833435,-0.34785446524620056,-0.809898853302002,0.9030507802963257,-0.06675592064857483,0.27333274483680725,-0.9809510707855225,0.45746588706970215,-1.5141123533248901,0.33116981387138367,-0.23968979716300964,1.4255043268203735,-0.4385306239128113,-1.2779860496520996,1.0247275829315186,0.724048376083374,-1.1490892171859741,0.4797403812408447,1.0186684131622314,-0.32966676354408264,-1.4308542013168335
Base di conoscenza,-0.14771418273448944,-0.23305334150791168,-0.14154544472694397,-0.9866915941238403,0.663422167301178,0.5581916570663452,-0.25056979060173035,0.6719478368759155,0.10546135157346725,-1.0250768661499023,0.19265027344226837,0.07569288462400436,-0.3031536340713501,0.6737962365150452,0.4822816550731659,0.7186576128005981,-0.8977010250091553,0.11560782790184021,0.030101347714662552,-0.08864915370941162,-0.19373923540115356,-0.6163705587387085,1.0544707775115967,0.2947832942008972,-0.1785031259059906,-0.09087750315666199,-0.3588201701641083,0.3365253210067749,-1.7233091592788696,0.004035786725580692,-0.6108154654502869,-0.011481601744890213,0.10998719930648804,-0.558577835559845,-1.1117397546768188,0.5510591268539429,0.13233120739459991,-0.5438350439071655,-0.15532365441322327,0.15148800611495972,0.6044850945472717,-0.34289664030075073,0.08793554455041885,0.8742777705192566,-0.06765250861644745,0.39166250824928284,-0.025654686614871025,-0.8702887296676636,0.8229535222053528,-0.6292654871940613,-0.4935453236103058,-0.04538462311029434,-0.2896539270877838,0.5885874629020691,0.72021484375,-0.6899119019508362,0.2178739756345749,-0.9027154445648193,0.29266825318336487,0.6511363387107849,-0.23500362038612366,0.430682897567749,0.5933542847633362,-0.45136240124702454,0.2141486257314682,-0.8933337330818176,-0.8326032757759094,-0.17407414317131042,1.3502047061920166,0.04030384495854378,0.15145719051361084,0.7205779552459717,0.008920599706470966,0.9491625428199768,-0.08320704102516174,0.23146986961364746,-0.04182495176792145,-1.040209412574768,-0.6826067566871643,0.12423104792833328,-0.15310905873775482,-0.1798325628042221,-0.47546252608299255,0.035668425261974335,0.41998690366744995,-0.5741270780563354,0.9572083353996277,-1.0314455032348633,-0.8087863326072693,-0.3772301971912384,0.18803682923316956,0.458350270986557,-0.5859254002571106,-0.1891537457704544,0.040040597319602966,-0.5435033440589905,0.5537872314453125,0.37296366691589355,0.4195367395877838,-0.31855693459510803
Bidimensionalità,-0.05076189339160919,0.6515477895736694,-0.5728718638420105,-1.9792144298553467,0.45854562520980835,0.03139309585094452,-0.3176719546318054,0.2974957525730133,0.7337081432342529,-1.0881719589233398,0.01717527024447918,-1.1492300033569336,0.7072596549987793,0.47737041115760803,-0.15368367731571198,0.046292733401060104,-0.47145378589630127,-0.9290131330490112,0.5914167165756226,-1.046083927154541,-1.5247294902801514,-1.5613573789596558,1.0080015659332275,0.3736213445663452,-0.2053009271621704,0.8991374373435974,-0.5923698544502258,-1.4366480112075806,-1.3577966690063477,1.460229516029358,-0.4238128364086151,0.04024587571620941,-1.3762123584747314,-0.022903185337781906,-1.055832862854004,-0.4697154760360718,-1.5436018705368042,0.8026691675186157,0.9944986701011658,-1.0191007852554321,0.6282936930656433,-0.5495200753211975,0.11382018029689789,0.04849432036280632,-1.3277513980865479,1.756643533706665,-0.5949478149414062,-2.1640238761901855,0.4130326509475708,0.4566187858581543,-0.5214042663574219,-0.11847743391990662,-0.7961204051971436,-0.668404221534729,-0.10177519172430038,0.25388243794441223,0.4902484714984894,0.18832293152809143,0.786209762096405,0.9995822906494141,-0.11439809948205948,-0.05015665665268898,0.43427494168281555,-1.098122477531433,-0.1448046714067459,-0.7014679908752441,-0.33659636974334717,-0.13168755173683167,0.8945205807685852,-0.1993177831172943,1.5754262208938599,1.1112263202667236,-0.17064456641674042,-0.1688220351934433,-0.32264092564582825,1.027421474456787,-0.725509524345398,-0.5506890416145325,-0.3574793040752411,-0.8383821845054626,0.44414904713630676,-0.33740857243537903,0.6247285008430481,0.4262806475162506,1.4488253593444824,-0.060250796377658844,-0.7446668744087219,-0.45835283398628235,-0.9298584461212158,-1.4408283233642578,0.08732116967439651,-1.5134730339050293,-0.49574723839759827,0.5177807211875916,0.7021749019622803,0.2523549497127533,0.15109866857528687,0.814479649066925,-1.2393537759780884,-0.586929976940155
Boom sonico,1.0030975341796875,0.6061140894889832,-0.25939032435417175,-1.4749966859817505,0.3633856177330017,-0.15357276797294617,-0.3312890827655792,1.838714599609375,1.3080410957336426,0.6536939144134521,-0.5928398966789246,-1.379886507987976,-0.4797079563140869,0.0643363818526268,-0.38270753622055054,0.18490815162658691,-0.1975647360086441,-0.08209802210330963,-0.0002497927052900195,-0.795744001865387,-0.5465078353881836,-0.6064482927322388,0.018209226429462433,-0.2631906569004059,0.3700450658798218,-1.0848257541656494,-1.131967306137085,0.749025821685791,-0.5205665230751038,1.1149848699569702,1.1189051866531372,0.7602877020835876,0.16533531248569489,0.08588417619466782,-0.6848359704017639,0.8406559824943542,-1.1879255771636963,-0.17454014718532562,-0.3544350564479828,0.511875331401825,1.0894299745559692,0.22942350804805756,-0.27099400758743286,0.2784135639667511,0.4272204041481018,1.231872797012329,0.015217678621411324,-0.33043307065963745,-0.5597527623176575,1.2018886804580688,-0.9330251216888428,-0.5312285423278809,-0.44327038526535034,-0.5020656585693359,-0.04386773332953453,-1.1493107080459595,-0.532965898513794,0.8474848866462708,0.362055242061615,0.337278813123703,-1.0338054895401,0.0747230052947998,0.4860764741897583,-0.04217108339071274,0.19384290277957916,-0.6933116912841797,-0.4700222909450531,0.4675590693950653,-0.3187009394168854,0.10645382106304169,-0.6645334959030151,1.0296531915664673,-0.6217814683914185,0.9195184111595154,-0.1015123650431633,0.19432432949543,0.3650165796279907,-1.2194105386734009,1.3275184631347656,0.05436967313289642,0.44203099608421326,-0.6023092269897461,0.3358047902584076,-0.7396981120109558,1.4404453039169312,0.6519423127174377,0.1874939203262329,-0.8299897909164429,-0.16174578666687012,0.19857633113861084,0.9931200742721558,-0.25622838735580444,1.023560643196106,0.35886335372924805,-0.3839762806892395,-0.3793483078479767,0.31915754079818726,-0.5902939438819885,-0.3201860785484314,-0.9926116466522217
Boosting,0.0,0.0,0.0,0.0,0.0,0.0,0.0,0.0,0.0,0.0,0.0,0.0,0.0,0.0,0.0,0.0,0.0,0.0,0.0,0.0,0.0,0.0,0.0,0.0,0.0,0.0,0.0,0.0,0.0,0.0,0.0,0.0,0.0,0.0,0.0,0.0,0.0,0.0,0.0,0.0,0.0,0.0,0.0,0.0,0.0,0.0,0.0,0.0,0.0,0.0,0.0,0.0,0.0,0.0,0.0,0.0,0.0,0.0,0.0,0.0,0.0,0.0,0.0,0.0,0.0,0.0,0.0,0.0,0.0,0.0,0.0,0.0,0.0,0.0,0.0,0.0,0.0,0.0,0.0,0.0,0.0,0.0,0.0,0.0,0.0,0.0,0.0,0.0,0.0,0.0,0.0,0.0,0.0,0.0,0.0,0.0,0.0,0.0,0.0,0.0
Bootstrap (statistica),0.0,0.0,0.0,0.0,0.0,0.0,0.0,0.0,0.0,0.0,0.0,0.0,0.0,0.0,0.0,0.0,0.0,0.0,0.0,0.0,0.0,0.0,0.0,0.0,0.0,0.0,0.0,0.0,0.0,0.0,0.0,0.0,0.0,0.0,0.0,0.0,0.0,0.0,0.0,0.0,0.0,0.0,0.0,0.0,0.0,0.0,0.0,0.0,0.0,0.0,0.0,0.0,0.0,0.0,0.0,0.0,0.0,0.0,0.0,0.0,0.0,0.0,0.0,0.0,0.0,0.0,0.0,0.0,0.0,0.0,0.0,0.0,0.0,0.0,0.0,0.0,0.0,0.0,0.0,0.0,0.0,0.0,0.0,0.0,0.0,0.0,0.0,0.0,0.0,0.0,0.0,0.0,0.0,0.0,0.0,0.0,0.0,0.0,0.0,0.0
Bussola,-0.434376060962677,1.6867825984954834,0.03722245991230011,-1.382918119430542,1.8139783143997192,-0.686294674873352,0.483311265707016,0.8860787153244019,-0.00015502491442020983,1.05697762966156,0.11237052828073502,-0.057247135788202286,-0.09283196926116943,-0.8370540738105774,0.07509763538837433,0.41417181491851807,-0.349124550819397,-0.9556124806404114,-0.49579042196273804,-0.5496442317962646,0.6667860746383667,0.2259567528963089,0.17776185274124146,0.2850848436355591,0.4437275826931,-0.10147003829479218,-0.7997613549232483,0.18241246044635773,-0.969434916973114,1.217505931854248,-0.4328521192073822,0.4271792769432068,-0.10064346343278885,1.1310579776763916,0.08646027743816376,0.1853955090045929,-0.16314376890659332,0.07511299848556519,0.01886257342994213,-1.7385317087173462,1.180439829826355,0.6880767345428467,0.041529152542352676,0.38667231798171997,-1.0065761804580688,0.9877200126647949,0.6120359301567078,-0.7152067422866821,0.19406728446483612,0.6295602917671204,-0.3753337264060974,-0.5791147947311401,-0.5395901203155518,-0.008733165450394154,-0.6795085668563843,-0.21827781200408936,-0.2892351746559143,-0.3692009449005127,1.1921062469482422,0.07002878934144974,0.2162935733795166,-0.24204103648662567,0.9014194011688232,-0.13287027180194855,0.23271958529949188,-1.7283209562301636,0.20146742463111877,-0.3503924310207367,0.4051066040992737,-0.3139752149581909,-0.3360438346862793,2.1285340785980225,-0.6286181807518005,-1.1022487878799438,0.2551291882991791,-0.8297786116600037,-0.6668471693992615,-0.5614378452301025,0.24464817345142365,-1.1813081502914429,-0.4246242642402649,0.3155515193939209,-0.13674379885196686,0.17967112362384796,0.9924523830413818,0.23891687393188477,0.12630410492420197,-0.8360444903373718,-0.5600526332855225,-0.39428985118865967,0.12300455570220947,0.20198193192481995,0.5482906103134155,0.6666147708892822,-0.04569046199321747,-0.042607516050338745,1.4325369596481323,0.18457840383052826,-1.5070414543151855,-0.6476833820343018
Caduta libera,0.016419297084212303,-0.5354722142219543,-0.5464111566543579,-0.6622639298439026,0.23174668848514557,-0.5774672031402588,0.9755595922470093,1.648774266242981,0.9406100511550903,0.19099870324134827,-0.28982409834861755,-2.104975700378418,-0.0151096535846591,-0.6613543629646301,0.8333384394645691,-0.5723788142204285,-1.3875750303268433,0.1951700896024704,1.0458576679229736,-0.9392132759094238,-0.9710503816604614,0.30983197689056396,0.3446398079395294,-1.2057560682296753,0.28883233666419983,-0.1443771868944168,0.10502970218658447,1.3811618089675903,-1.7356082201004028,1.1682469844818115,0.506804883480072,-0.920369565486908,-0.4961305260658264,-0.45400407910346985,0.3176848590373993,0.614061176776886,-0.81451416015625,1.1666982173919678,-0.9639952182769775,0.2758312225341797,0.9598894119262695,-0.5380767583847046,-0.5854974389076233,0.1030116006731987,-0.10192828625440598,0.35735204815864563,-1.4598661661148071,-1.2467358112335205,0.4872199296951294,1.1449687480926514,-0.13730083405971527,-0.9129554629325867,-0.18798282742500305,-0.4199833273887634,0.45259812474250793,-0.8099173307418823,-1.1836068630218506,1.3119819164276123,-0.6101535558700562,0.13005641102790833,-1.5346506834030151,-0.3662474751472473,1.728456974029541,-0.40071943402290344,-0.6119193434715271,-0.20142383873462677,-0.6446544528007507,-0.5657638907432556,0.6799659729003906,-0.35113540291786194,-0.26910293102264404,1.0135431289672852,-0.47910648584365845,-0.7655532360076904,-0.9903870224952698,0.5734021663665771,-0.94944828748703,-1.2522196769714355,0.5759092569351196,0.6178297996520996,1.2090407609939575,-0.7426343560218811,-0.08765976130962372,0.2699240446090698,1.8228175640106201,0.3373967111110687,0.2591521143913269,-0.22849208116531372,0.3531741201877594,1.052406668663025,0.2348400205373764,-1.280834674835205,0.7663925290107727,-0.04972409829497337,-0.5490303635597229,0.42543235421180725,0.20776797831058502,0.39301425218582153,-1.1479547023773193,-0.5190448760986328
Calcolo infinitesimale,0.4065398573875427,0.4652479588985443,0.6013917326927185,-1.1131623983383179,-0.40066850185394287,-0.3277305066585541,0.4941405653953552,0.5515345931053162,0.5715410113334656,0.7923239469528198,-0.1116347536444664,0.18070951104164124,-0.4453897178173065,0.08472795784473419,2.0865285396575928,0.6217936277389526,-1.8241770267486572,-0.6791368722915649,-0.24052518606185913,-0.6055761575698853,0.49762797355651855,-1.3801825046539307,1.1813687086105347,0.2995377480983734,-0.3726131021976471,0.11572467535734177,0.29123446345329285,-0.2622951567173004,-1.8790391683578491,0.7187033891677856,0.20555058121681213,-0.5353886485099792,0.9332072138786316,0.771649956703186,-1.1085588932037354,-0.6372098326683044,-0.5402140617370605,-0.19760268926620483,-0.7345640063285828,-0.6461107134819031,0.2346552461385727,-0.5540926456451416,0.2111753672361374,-0.4119466543197632,-0.48272642493247986,1.4421237707138062,-0.04670475423336029,-1.6683986186981201,0.2552831172943115,-0.4151209890842438,-0.5855360627174377,-0.06663019955158234,0.7534775733947754,-0.23341013491153717,-0.14889982342720032,1.0259424448013306,-0.5499920845031738,0.4224364161491394,2.228031635284424,-0.37299323081970215,0.20602092146873474,0.8061497807502747,1.505361795425415,0.15804658830165863,0.49042999744415283,-0.650144100189209,-0.14244738221168518,-0.6492897272109985,0.9626550078392029,-0.2925383150577545,0.2255176156759262,0.9479144811630249,-0.5613824129104614,0.452867716550827,-1.3077623844146729,0.8876346945762634,-1.4879873991012573,-1.1318985223770142,0.7601293325424194,0.3146630823612213,0.4613499343395233,-0.6506216526031494,0.18385545909404755,0.3263075053691864,1.048915147781372,0.4371003806591034,1.2923599481582642,-0.4603778123855591,-1.5999937057495117,-0.4524293541908264,1.3362879753112793,0.3689117729663849,-0.2960148751735687,1.3285812139511108,0.2325492650270462,0.783935010433197,1.7500755786895752,2.087352752685547,-0.817778468132019,0.9677554965019226
Campionamento casuale,-0.09340380877256393,0.29454198479652405,-0.07089709490537643,-1.4328397512435913,0.2439461201429367,0.49926507472991943,-0.27530840039253235,0.4241596758365631,0.5006191730499268,-0.6046566367149353,0.3047865629196167,0.4674460291862488,-0.5386819839477539,0.6955639719963074,0.9495276808738708,0.14093483984470367,-1.1344457864761353,0.3452730178833008,-0.394852876663208,0.12314467132091522,-0.1369585543870926,-0.7279293537139893,0.3680693209171295,0.12528418004512787,-0.31324538588523865,-0.2885156571865082,-0.3851492702960968,-0.13072620332241058,-0.13359662890434265,0.5036467909812927,-0.0857754722237587,-0.09295786172151566,0.38251206278800964,0.08841370791196823,-0.3239598870277405,-0.11921118199825287,-0.3139651417732239,0.13969196379184723,-0.15064658224582672,0.24281726777553558,0.7520010471343994,0.3634561598300934,0.2276497483253479,0.6932998299598694,0.025584090501070023,0.6270352005958557,-0.6740567088127136,-0.9609552025794983,0.12930697202682495,-0.11591462790966034,-0.908696174621582,-0.8000514507293701,-0.4003376066684723,0.2639875113964081,0.020692046731710434,-0.1908547431230545,-0.1159803718328476,-0.14444659650325775,-0.26244601607322693,-0.1212633028626442,-0.22136841714382172,1.2649528980255127,0.2596748471260071,-0.5830909013748169,0.5118913650512695,-0.04243255779147148,-0.18632519245147705,-0.2695901095867157,1.2292866706848145,-0.4692969024181366,-0.602674663066864,-0.5892492532730103,-0.5285695791244507,-0.1150929406285286,-0.13985466957092285,0.4606722295284271,-0.9557322859764099,-0.9776868224143982,-0.7049389481544495,-0.10628963261842728,-0.322212278842926,-0.5980071425437927,0.17785191535949707,0.09944067150354385,0.41386374831199646,0.037486474961042404,0.9235737919807434,-0.7044188976287842,-0.3586052656173706,-0.3432253301143646,0.8624111413955688,-0.42667996883392334,-0.3336625397205353,0.2340516597032547,-0.011594039388000965,-0.10400871187448502,0.7318540811538696,0.4058552086353302,0.5025358200073242,-0.2101309448480606
Campionamento statistico,0.18280449509620667,0.2616450786590576,-0.5735148191452026,-2.1249351501464844,-0.012761872261762619,0.537860631942749,0.9486014246940613,1.5003435611724854,0.6368243098258972,-0.3610025942325592,0.05084303021430969,0.18154555559158325,-0.08027820289134979,1.0565098524093628,1.071718692779541,0.1809242218732834,-1.5649203062057495,0.4808213412761688,-0.4074397087097168,-0.5125570297241211,0.4951718747615814,-1.2891680002212524,-0.050941042602062225,0.6919646859169006,-0.38571470975875854,0.4594346582889557,-0.9912949800491333,0.4321366846561432,0.36073368787765503,0.3911465108394623,0.6626005172729492,-0.2771584689617157,0.5492425560951233,-0.08419597893953323,-0.6766201853752136,0.8809043765068054,-1.262233018875122,-0.056196633726358414,0.22555138170719147,0.8661434054374695,0.39396506547927856,-0.11036700010299683,0.1243959441781044,0.33640560507774353,-0.6017544269561768,0.22587886452674866,0.14300423860549927,-1.6795969009399414,0.15399594604969025,-0.6434586644172668,-0.8732689619064331,-0.6833053827285767,-0.0008439600351266563,0.5582387447357178,-0.0004626520094461739,0.004748248495161533,0.24801157414913177,-0.14654263854026794,0.039985910058021545,-0.4951654374599457,-0.42719829082489014,1.049031376838684,0.22651296854019165,-0.7349110841751099,0.563572347164154,-0.41139793395996094,-0.5749228000640869,0.0911068543791771,0.681501567363739,-0.4087103605270386,-0.6304849982261658,-0.11794920265674591,-1.5130131244659424,-0.3808271586894989,-0.3304854929447174,0.2522469758987427,-0.2112206667661667,-1.3327500820159912,-1.70583176612854,-0.1755114048719406,-0.28159773349761963,-0.4430919587612152,-0.08826027810573578,0.14203833043575287,0.6644591093063354,-0.05523432418704033,0.9034771919250488,-0.5217844247817993,-0.7023605108261108,0.013736063614487648,1.19999361038208,-0.10659047216176987,-0.29138296842575073,0.3222269117832184,-0.5633850693702698,-0.2772238850593567,1.8790624141693115,0.7817614674568176,1.2349604368209839,-0.4510364234447479
Campo (fisica),0.41737455129623413,0.17210446298122406,1.533520221710205,-1.2000699043273926,0.9461182355880737,-0.7989582419395447,-0.5050121545791626,0.39425215125083923,1.0870665311813354,-0.4418427348136902,-0.025957712903618813,-1.5676252841949463,-0.5606673955917358,-0.5641598105430603,-0.047055989503860474,-0.18713898956775665,-1.4128204584121704,-0.12200220674276352,-0.15571148693561554,-0.41072362661361694,-1.0351166725158691,-0.07048594951629639,1.3108012676239014,0.06077464669942856,0.20161065459251404,-1.2079074382781982,0.06583122909069061,0.6025306582450867,-0.7585920095443726,-0.2729988694190979,-0.1272575855255127,-0.16805821657180786,0.090562604367733,0.6358904838562012,-1.334377408027649,0.37529805302619934,-0.9872722029685974,-0.038258761167526245,-1.045163631439209,-0.9072567820549011,0.2978041172027588,-0.5628332495689392,-1.3354977369308472,0.6686043739318848,0.25718632340431213,1.2100750207901,-0.10936074703931808,-1.615910530090332,-0.3406139314174652,0.5802420973777771,-1.077643632888794,-1.257272720336914,-0.18924540281295776,-0.23714560270309448,0.9546839594841003,-0.756148636341095,-0.5191863775253296,0.2643233835697174,-0.09157723933458328,-0.923038899898529,-0.28533318638801575,0.07995681464672089,1.0938011407852173,0.010285620577633381,0.3443536162376404,-1.4956673383712769,0.5568608045578003,-1.2775014638900757,-0.18447384238243103,-0.5671653151512146,-0.3895224332809448,0.3985668122768402,-1.8178250789642334,-0.27357620000839233,-0.35386329889297485,-0.336195707321167,-1.583282470703125,-1.099177598953247,-0.1251927763223648,0.38752034306526184,-0.13901910185813904,-0.7311406135559082,1.0893397331237793,-0.009857548400759697,0.5313918590545654,-0.39816147089004517,1.0570318698883057,-2.3419127464294434,-0.9806321263313293,0.5914115905761719,0.951607346534729,-0.23426759243011475,-0.6683687567710876,-0.41592010855674744,0.8693222403526306,-0.43256261944770813,0.73713219165802,0.6238143444061279,-0.2025216966867447,0.26336827874183655
Campo elettrico,0.03659391030669212,0.16801515221595764,0.5821340084075928,-1.3569605350494385,0.4867441654205322,0.06100495904684067,1.4066654443740845,0.5979448556900024,0.04758504778146744,-0.4113793671131134,-0.6071736812591553,-0.9869440793991089,-0.5562059879302979,-1.4002546072006226,0.026196159422397614,0.4801267981529236,-0.9244555830955505,-0.9630686640739441,-0.12670905888080597,-1.1468216180801392,-0.41697946190834045,-0.9956212043762207,0.5544079542160034,0.5388227105140686,0.12561538815498352,-0.6652078628540039,-0.7383514642715454,-0.3929051458835602,-0.8623618483543396,0.6910275816917419,0.08684749901294708,0.18615098297595978,0.031961578875780106,-0.1800483763217926,-0.7988578677177429,0.7143609523773193,-1.1504974365234375,0.4141049385070801,0.03309351205825806,-0.6641080379486084,1.1244312524795532,-0.6899598240852356,0.10171126574277878,-0.2203463464975357,-0.4138786196708679,1.3838354349136353,-1.1757419109344482,-1.1780518293380737,-0.06633387506008148,0.34288522601127625,-0.5251778960227966,-0.8637139797210693,-0.5028561353683472,-0.5526553988456726,1.4426642656326294,0.3175870478153229,0.480351984500885,1.0764189958572388,0.16627629101276398,-0.45959484577178955,-1.1719218492507935,-0.12751004099845886,-0.35581859946250916,-0.13405802845954895,0.32407477498054504,-1.2261888980865479,-0.07026837766170502,-0.4083266258239746,0.47959670424461365,-0.5582484006881714,-0.249331533908844,0.6650481820106506,-0.20537692308425903,-0.7317565679550171,-0.19064444303512573,0.39031654596328735,-0.28965631127357483,-1.573944091796875,0.03987649828195572,0.04909242317080498,0.7246794104576111,-0.721290111541748,0.12121467292308807,-0.42137712240219116,1.1495448350906372,0.2446337342262268,0.7743428349494934,-1.4969933032989502,0.01449600886553526,0.045233871787786484,0.6525470018386841,-0.30975133180618286,-0.26984289288520813,0.7905179262161255,0.07480276376008987,0.09011020511388779,0.18667730689048767,0.379012793302536,0.731151819229126,-0.06325774639844894
Campo gravitazionale,0.5471546053886414,-0.5943039059638977,-0.3764741122722626,-0.890234112739563,1.3783066272735596,-0.21491742134094238,0.5333747267723083,0.3899671733379364,0.7355201840400696,0.022405827417969704,-0.09528867155313492,-1.2932230234146118,-0.7100202441215515,-0.07234670966863632,-0.019387666136026382,-0.1499544084072113,-0.8562289476394653,-0.7121606469154358,0.16126187145709991,-0.09813717007637024,-0.22023478150367737,0.37317562103271484,0.20537662506103516,0.6981375217437744,-0.5977281332015991,-0.6449402570724487,-0.7367923259735107,0.09136134386062622,-0.9833810925483704,0.1556544452905655,0.5481613874435425,0.2736356854438782,-0.40956851840019226,0.24077045917510986,-0.48735126852989197,0.6632729768753052,-0.401670902967453,-0.45632442831993103,0.11831410974264145,-0.5448618531227112,1.426748275756836,-1.8521822690963745,0.32188332080841064,0.5054430365562439,-0.28101712465286255,0.7212862372398376,-0.5668752193450928,-0.5605447292327881,0.07344327867031097,0.249867245554924,-1.2066656351089478,-1.1394891738891602,-0.5486727952957153,-0.21453724801540375,0.08279778808355331,0.16063399612903595,0.7593434453010559,1.6879698038101196,0.5315724611282349,-0.6588674187660217,-0.94117271900177,0.6057519316673279,0.9980707764625549,-0.7011755704879761,0.026165002956986427,-0.7800567150115967,0.109506756067276,-0.15377916395664215,0.6230517029762268,-1.0124233961105347,-0.1573401540517807,0.9375225901603699,-1.4376425743103027,-0.47219687700271606,-0.819368839263916,0.7944678068161011,-0.4119735360145569,-1.3431487083435059,-0.14296205341815948,-0.3680887222290039,1.2838798761367798,-0.4313881993293762,0.1700824797153473,-0.4889930188655853,1.147216796875,0.5129367113113403,0.5713504552841187,-1.4681240320205688,-1.2448772192001343,0.6109808087348938,0.42613014578819275,-1.3043968677520752,-0.06720297783613205,0.5670773386955261,-0.3930049538612366,-0.6315142512321472,1.0275338888168335,1.4362156391143799,-0.600192129611969,0.5300841331481934
Campo gravitazionale terrestre,0.3732650876045227,-0.6083879470825195,0.5299117565155029,-0.5223982930183411,1.6205552816390991,0.33200109004974365,0.5229671001434326,0.18401877582073212,0.749329686164856,0.6896321773529053,0.2420363575220108,-0.7437391877174377,0.10467629134654999,-0.6687932014465332,0.44163793325424194,0.061137136071920395,-1.1525917053222656,-0.25963401794433594,0.5283983945846558,0.21637922525405884,-0.5702827572822571,-0.2855961322784424,0.3305948078632355,1.179782509803772,0.4433518648147583,-0.8022614121437073,0.11166656017303467,0.3733574151992798,-0.8082228899002075,1.1591523885726929,0.937370777130127,0.8894367814064026,0.43638256192207336,-0.4066798985004425,-0.5881331562995911,-0.134475439786911,-0.3776616156101227,0.5404161810874939,-0.5769209265708923,-0.9462295770645142,0.6198480725288391,-0.8104862570762634,-0.4108521342277527,-0.498166024684906,-0.08424095809459686,0.8674333095550537,-0.8594698309898376,-0.9447165131568909,0.5076156258583069,1.0562732219696045,-2.187859296798706,-0.027345098555088043,-0.557134747505188,-0.47579318284988403,-0.5460588335990906,0.2783012390136719,-0.5117248892784119,0.4700656831264496,1.1139051914215088,-0.2886326313018799,-0.9972831010818481,0.7671608328819275,2.5842857360839844,0.2412581890821457,-0.052571892738342285,-1.009581208229065,-0.08268287032842636,-0.6434633731842041,0.052147552371025085,-0.468244731426239,-1.196661353111267,1.3381776809692383,-1.1974231004714966,0.4686782658100128,-1.260690450668335,-0.5429987907409668,-1.1038873195648193,-0.369813472032547,-1.0493253469467163,-0.0761084333062172,1.3491334915161133,-0.699437141418457,0.8646905422210693,0.02567940019071102,1.1287319660186768,0.09589067846536636,0.3160809874534607,-1.8659849166870117,-1.0668532848358154,-0.08370892703533173,0.47844600677490234,-0.4399694502353668,0.49515819549560547,0.5364349484443665,-0.12835709750652313,-1.28972589969635,0.8914290070533752,0.6158742308616638,-0.8682799935340881,-0.5651500821113586
Campo magnetico,0.3779623210430145,0.04941989853978157,0.4813325107097626,-1.3647041320800781,0.8617928624153137,-0.2555793225765228,1.2959058284759521,0.7773182988166809,0.40207019448280334,-0.15224426984786987,-0.36961740255355835,-0.6848077774047852,-0.3560182750225067,-0.9228688478469849,0.3018365204334259,0.3992508351802826,-0.6901832222938538,-0.9330193996429443,-0.11642715334892273,-1.1412276029586792,-0.35394763946533203,-0.4057792127132416,0.3377009630203247,0.5664026141166687,0.04380716010928154,-0.5800009965896606,-0.06076661869883537,-0.3377174437046051,-1.259872317314148,0.03432677313685417,0.7529447674751282,0.3566959500312805,0.2602706253528595,-0.5851309895515442,-0.6233921051025391,1.003496766090393,-0.9607424139976501,0.13691191375255585,0.45593810081481934,-0.5474992990493774,1.3284761905670166,-1.1455440521240234,0.23133081197738647,-0.0021288373973220587,-0.8180081844329834,1.5867383480072021,-0.6924152374267578,-1.4135522842407227,-0.16815175116062164,0.883894681930542,-0.7179242372512817,-1.0864179134368896,-0.4026053547859192,-0.16062840819358826,1.2830040454864502,0.13333439826965332,0.8895577788352966,1.1620601415634155,0.5722852349281311,-0.20525936782360077,-0.6651028394699097,-0.06495752185583115,0.07628081738948822,-0.2486080825328827,0.49793264269828796,-0.9834002256393433,-0.20312243700027466,-0.5812088847160339,0.7028639316558838,-0.4351311922073364,-0.38694602251052856,0.7355087399482727,-0.9635146856307983,-1.1463322639465332,-0.47340190410614014,-0.23466438055038452,0.22101005911827087,-1.00621497631073,0.3079878091812134,-0.6557989120483398,0.9629160165786743,-0.4538010060787201,0.36450791358947754,-0.5198315382003784,1.3204176425933838,-0.06130930408835411,0.7864013910293579,-1.70915687084198,-0.011513515375554562,-0.06711303442716599,0.7196810245513916,-0.2359449863433838,-0.3939146101474762,0.5858774185180664,-0.30357876420021057,0.11076962947845459,-0.12181084603071213,0.5957245230674744,0.6207072734832764,0.2222827672958374
Campo vettoriale,-0.1953207403421402,-0.21930097043514252,0.5188217163085938,-1.6592750549316406,0.5130234956741333,-0.017424356192350388,-0.18250393867492676,-0.09327614307403564,0.47172775864601135,-1.3117382526397705,0.25923970341682434,-1.2705214023590088,-0.7418745160102844,-0.7298077940940857,0.43596702814102173,-0.19591373205184937,-1.4827781915664673,-0.8661062121391296,0.028913166373968124,-0.9411699175834656,-0.6354597210884094,0.08846201002597809,0.6331892013549805,0.5443128943443298,-0.959234893321991,-0.7110741138458252,-0.23774148523807526,0.08569019287824631,-0.6987519264221191,0.03863781690597534,-0.42043033242225647,0.26510074734687805,-0.20476749539375305,0.4422016441822052,-0.7060577869415283,0.8814024329185486,-1.0453096628189087,0.02916211076080799,-0.05241800472140312,-1.4830971956253052,0.38173869252204895,-1.3429317474365234,-0.21200096607208252,0.3481658399105072,-0.12042886763811111,0.8830612301826477,-1.083088994026184,-1.2369813919067383,0.08421642333269119,-0.08715412020683289,-0.7916774153709412,-1.2464793920516968,-0.44846123456954956,-0.11936009675264359,0.84852534532547,-0.41294634342193604,0.4428524971008301,0.636687159538269,0.44465184211730957,-1.1448404788970947,-1.2720378637313843,0.8627963066101074,0.5574437975883484,-0.27276602387428284,0.660444438457489,-1.1461272239685059,-0.17802995443344116,-0.6137242317199707,0.5914307832717896,-0.9448063373565674,-0.5617098808288574,0.9537736773490906,-0.5810037851333618,0.3137158751487732,-0.3873339295387268,0.30393117666244507,-1.332969069480896,-1.3359804153442383,-0.2736988067626953,-0.045813437551259995,0.3596375286579132,-1.1796507835388184,0.624271035194397,0.020029950886964798,0.7655773758888245,0.23957271873950958,-0.13764096796512604,-1.5689623355865479,-0.22388920187950134,-0.6244550943374634,0.5859625935554504,0.3429379165172577,-1.3220864534378052,0.8270814418792725,0.13130654394626617,-0.3865400552749634,1.8301714658737183,1.1816184520721436,-0.6000452637672424,0.047641560435295105
Capacità elettrica,0.31796109676361084,1.528875470161438,0.6545758843421936,-1.001502513885498,0.2231963723897934,-0.5369157195091248,0.2940462529659271,0.4803650379180908,-0.22226205468177795,-0.6366778612136841,0.07915980368852615,-0.5978661775588989,-0.6873992681503296,-1.391693115234375,0.8285828828811646,0.1467859447002411,-1.1042488813400269,-0.702229380607605,-0.10141195356845856,-0.657081663608551,-0.01733018271625042,-0.5924379825592041,0.16844038665294647,1.3506256341934204,0.4677511155605316,-0.23171569406986237,-0.4176449477672577,-0.7872363924980164,-1.446450114250183,0.6834567785263062,1.2362202405929565,1.0660054683685303,0.6156765222549438,-0.1262158304452896,-1.0912383794784546,0.37735632061958313,-0.7844638228416443,1.0435290336608887,0.04203290119767189,-0.5641418099403381,0.5636067986488342,-1.2057143449783325,-0.08136317878961563,1.142236351966858,-0.9435186386108398,1.4433913230895996,-0.34596967697143555,-1.9035316705703735,0.2523106038570404,-0.4034954607486725,-0.5298407077789307,-0.7144952416419983,0.330771803855896,-1.2068452835083008,1.602495551109314,-0.31671202182769775,1.0803139209747314,0.18193671107292175,-0.01174837350845337,0.41355079412460327,-1.0025770664215088,-0.099527508020401,0.3047500550746918,-0.9033328890800476,0.6758421659469604,-0.7888398170471191,-0.21523557603359222,-0.7648688554763794,1.8663946390151978,-0.41838783025741577,-0.8197721242904663,0.9593777656555176,-0.5051836967468262,-0.38274523615837097,-0.45104435086250305,-0.5546592473983765,-1.0699825286865234,-0.8201436996459961,-0.27929171919822693,0.11620582640171051,0.19120225310325623,-0.053151462227106094,-0.7272226214408875,0.3336533010005951,1.2381908893585205,-0.491331547498703,0.7768271565437317,-0.9960917830467224,-0.8550435900688171,0.010316646657884121,0.12945474684238434,-0.08123737573623657,0.5246210694313049,1.2397838830947876,0.5377311706542969,-0.33396998047828674,0.8142303228378296,0.43112263083457947,0.29921650886535645,0.2813445031642914
Carica elettrica,0.04940193518996239,0.6442809104919434,0.7181732654571533,-0.7363848686218262,0.46221160888671875,-0.5306193828582764,1.0157276391983032,-0.3813320994377136,0.4566061496734619,-0.5284150242805481,-1.255344033241272,-0.5890891551971436,-0.907275915145874,-1.0129247903823853,0.11383447796106339,-0.15127675235271454,-1.0362433195114136,-0.49123841524124146,-0.24970346689224243,-0.5024445652961731,0.08340750634670258,-1.3472756147384644,0.3300594985485077,0.1298278123140335,0.36058634519577026,-0.2875015139579773,-0.4254596531391144,-0.17347030341625214,-0.5548564791679382,0.39117372035980225,0.38945531845092773,0.06126571074128151,0.9144715070724487,-0.7753274440765381,-0.6335314512252808,0.0027678043115884066,-0.7539424896240234,0.014963055960834026,0.32501643896102905,0.02782323956489563,1.1118866205215454,-1.3258196115493774,-0.40043145418167114,0.6324745416641235,-0.6551440358161926,1.5968788862228394,-1.145259141921997,-0.822889506816864,0.29921412467956543,-0.34168198704719543,-0.3596354126930237,-1.0981661081314087,-0.3374355733394623,-0.8643233776092529,0.8563432693481445,-0.01454835757613182,0.7369555830955505,0.725574791431427,0.2809196710586548,-0.1780358850955963,-1.1483001708984375,-0.09307261556386948,0.34860315918922424,-1.2400518655776978,0.06279297918081284,-1.4955343008041382,0.11248405277729034,-0.7600810527801514,0.7769471406936646,0.3350828289985657,-0.3944370746612549,0.9581228494644165,-0.87274169921875,-0.7010284066200256,-0.0415780209004879,-0.4501601457595825,-0.7498111724853516,-1.1459392309188843,-0.12753434479236603,-0.27597618103027344,-0.3923564851284027,-0.7868242859840393,0.17410004138946533,-0.22216394543647766,1.3707165718078613,-0.6751124262809753,0.6656969785690308,-2.1253249645233154,0.0494580902159214,-0.06054528057575226,1.0035864114761353,-0.10837657749652863,0.8716253042221069,0.8591338396072388,0.8253060579299927,-0.1328417956829071,0.5827280282974243,0.5784326195716858,0.7443972229957581,-0.09583000093698502
Chilogrammo,-0.23226022720336914,0.1004011332988739,-0.05578076094388962,-1.0784151554107666,0.3093455731868744,-0.8143845200538635,0.4280267357826233,0.7835884094238281,-0.7564931511878967,0.867081344127655,-0.02486356347799301,-1.0234507322311401,-0.08179090172052383,-0.8220502734184265,0.72684246301651,1.213752269744873,-1.6574798822402954,-0.13124258816242218,-0.3542744517326355,-0.42159774899482727,-0.666916012763977,-0.7978897094726562,0.2226685732603073,-0.9604441523551941,0.3372167646884918,0.5213103890419006,0.14319540560245514,0.6689919829368591,-0.215639129281044,0.3981221318244934,1.2256609201431274,-0.054715465754270554,-0.059943147003650665,0.1400158852338791,0.6146792769432068,0.30708780884742737,-0.7959062457084656,-0.5101567506790161,1.0738003253936768,0.28804811835289,1.0835469961166382,-0.592547595500946,-0.6293122172355652,1.2880288362503052,-0.46393367648124695,1.7219202518463135,-0.2886269688606262,-0.802852988243103,0.14535757899284363,0.24099457263946533,-0.1833069920539856,1.4652178287506104,0.4306482672691345,-1.2312288284301758,1.1021610498428345,1.107271432876587,-0.5630046725273132,1.5708036422729492,-0.8188047409057617,-0.5353549122810364,-0.9848366379737854,-0.6624675989151001,0.9380828142166138,-0.5909962058067322,0.30370184779167175,-0.6775720119476318,-0.28938716650009155,0.14155711233615875,1.029103398323059,-0.8946719765663147,-0.485989511013031,-0.5741239190101624,0.33163899183273315,-0.2854557931423187,-1.4836645126342773,-1.2277495861053467,0.5840388536453247,-1.4141120910644531,0.23955979943275452,0.9135202765464783,0.27180445194244385,-0.8117413520812988,0.6962606310844421,-0.5751938223838806,1.889146089553833,0.2876507639884949,0.14714837074279785,-0.8587235808372498,0.20756150782108307,0.8517497181892395,1.3709988594055176,-0.39584222435951233,1.2363758087158203,1.6297070980072021,0.2283889651298523,-0.47924959659576416,0.6945201754570007,-0.6965826153755188,-1.5320271253585815,-0.8859466910362244
Cilindro (geometria),0.19135065376758575,0.37334614992141724,0.197932630777359,-1.4332408905029297,0.2545642554759979,-1.823058009147644,1.4230176210403442,-0.40327268838882446,0.0934944897890091,-0.20230962336063385,-0.6777358651161194,-1.2884706258773804,0.7851350903511047,1.1627068519592285,0.022430282086133957,1.280470848083496,-1.6380740404129028,-1.2479584217071533,-0.2235962450504303,-0.46018725633621216,-1.2503994703292847,0.06846360862255096,-0.28707176446914673,-0.30102476477622986,-0.6765303015708923,-0.0699065774679184,-1.921999454498291,1.2489614486694336,-1.5875660181045532,0.8101440668106079,0.22784113883972168,0.7939516305923462,0.23302660882472992,-0.29422324895858765,-1.320801854133606,0.9698532223701477,-0.6092075109481812,0.989423930644989,0.7940593361854553,-1.2263046503067017,0.5795249342918396,-0.19293323159217834,0.02833978645503521,1.263966679573059,-0.4023644030094147,2.130856990814209,0.541545569896698,-1.664046287536621,-0.5633329153060913,0.9592213034629822,-1.0980058908462524,1.1970245838165283,-1.4496383666992188,0.3191334009170532,0.3115563988685608,-0.2019670307636261,-0.5307799577713013,0.33718007802963257,0.36891335248947144,-0.5472642779350281,-1.0209320783615112,-0.42295828461647034,0.08815259486436844,-0.7161954641342163,0.2413436770439148,-1.7045412063598633,0.13033567368984222,0.34009408950805664,0.421505868434906,0.9336199164390564,-0.27324700355529785,0.7032361030578613,-0.3967008888721466,-0.4965416193008423,-0.09915031492710114,0.29445356130599976,-0.8786598443984985,-1.2049494981765747,-0.3447433114051819,-0.8846801519393921,0.447020560503006,-0.8001861572265625,-0.5722297430038452,0.4387747645378113,0.6323786377906799,-0.42291778326034546,-0.733066976070404,-0.9818992614746094,-0.14416609704494476,-0.11920375376939774,1.425055980682373,-0.03422354906797409,-0.7099882364273071,1.6590790748596191,1.362081527709961,-0.42778095602989197,-0.17326684296131134,0.3487667739391327,-1.3095606565475464,0.3656713664531708
Circonferenza,-0.2677941620349884,0.18834491074085236,0.5624781250953674,-1.5547250509262085,0.7112869620323181,-0.7925018072128296,0.4834826588630676,-1.0236049890518188,-0.16294807195663452,0.7812398672103882,-0.27320680022239685,-1.1677193641662598,0.78016197681427,-0.46539413928985596,1.3729182481765747,0.7053824067115784,-1.4769630432128906,-0.9388599991798401,-1.0130964517593384,-1.060958743095398,-1.0429346561431885,-0.3376411497592926,0.19000974297523499,0.8300843834877014,-0.413979709148407,-0.19339551031589508,-0.12525449693202972,0.7027636766433716,-1.1388070583343506,1.018432378768921,-1.0731638669967651,0.6015278697013855,-0.16038522124290466,-0.07385966926813126,-0.9304542541503906,0.18374072015285492,-0.4411981403827667,0.6785816550254822,-0.054139479994773865,-0.8833743333816528,0.5767626166343689,-0.9527188539505005,-0.18612512946128845,2.188001871109009,-1.008727788925171,0.7656480073928833,-0.5295436978340149,-1.126536250114441,-0.5523920655250549,0.35682371258735657,-2.0764875411987305,1.6289952993392944,-2.134225845336914,-0.5278505086898804,1.860817790031433,-0.21562735736370087,-0.14351007342338562,-0.5204051733016968,0.8383870124816895,-1.2346440553665161,-0.167506605386734,0.22177843749523163,1.3767738342285156,-1.356407642364502,1.3932627439498901,-0.7697323560714722,0.11494922637939453,0.6206344366073608,-0.4117256700992584,-0.6655100584030151,-0.7706999778747559,1.398317575454712,-0.4945997893810272,-0.309167742729187,-0.8339164853096008,0.40035727620124817,-0.3104335069656372,-0.7128251791000366,-0.11857343465089798,0.5352567434310913,0.8196916580200195,-1.0807180404663086,0.31550753116607666,-0.4218413233757019,1.2712860107421875,0.5612479448318481,0.2162332385778427,-1.011242389678955,-0.29141104221343994,-0.6437810659408569,1.5057233572006226,-0.33205142617225647,0.5953457951545715,0.6786543726921082,0.8144920468330383,-0.2709693908691406,0.9094024896621704,0.28310203552246094,-0.5158762335777283,0.7722830772399902
Circonferenza unitaria,0.5119386315345764,0.4323263168334961,0.5771409869194031,-0.4434164762496948,-0.20568044483661652,0.126046285033226,-0.14187444746494293,0.15940029919147491,0.4388090670108795,-0.49500101804733276,-0.6482629776000977,-0.8470115065574646,-0.0603397898375988,0.0614938959479332,1.260435700416565,-0.027847865596413612,-1.2576472759246826,-0.18275873363018036,-0.14628152549266815,-0.8870417475700378,-0.1171906441450119,0.009814980439841747,0.973119854927063,0.31487640738487244,-0.772148609161377,-0.7166867852210999,-0.314718633890152,0.05620088055729866,-1.2507336139678955,0.11326253414154053,-0.09662578999996185,0.16093504428863525,-0.10297083854675293,-0.07090658694505692,-0.5964159965515137,-0.15988421440124512,-0.4915640652179718,-0.36447006464004517,-0.4053829610347748,-0.6398916840553284,0.0021525444462895393,-0.4618469178676605,-0.44614899158477783,0.38601213693618774,0.012290687300264835,1.5639415979385376,-0.34037935733795166,-1.1366615295410156,0.012015387415885925,-0.21613365411758423,-1.6660946607589722,0.27660074830055237,-0.46882346272468567,-0.4026963412761688,0.3153705596923828,0.0968947783112526,0.6632861495018005,-0.6619919538497925,0.32652994990348816,-0.5220358371734619,-0.19651256501674652,1.0772451162338257,0.921578049659729,-0.8423758745193481,1.0072643756866455,-1.2281990051269531,0.5099834203720093,-0.4990653991699219,-0.17411713302135468,-0.7032408118247986,-0.1851424276828766,0.7287114262580872,0.01165847945958376,0.4714546501636505,0.053078893572092056,0.17278814315795898,-1.324243187904358,-1.2021642923355103,0.1077575832605362,0.44394129514694214,0.1634049415588379,-1.3108817338943481,0.10426443815231323,0.14501018822193146,0.48241308331489563,0.47702494263648987,0.13686507940292358,-1.1140857934951782,-0.7648389339447021,-0.599035918712616,0.061082616448402405,-0.41140928864479065,-1.0600159168243408,0.8948251605033875,0.5436952114105225,-0.04377618432044983,1.323148250579834,1.1870707273483276,-0.4299296438694,-0.2761218845844269
Circuiti in serie e in parallelo,-0.2215241640806198,1.194197654724121,0.1016140803694725,-1.131761074066162,-0.6545988917350769,-0.7511823773384094,0.815466046333313,-0.0025008462835103273,0.05326557904481888,-0.9876567721366882,-0.8342346549034119,-0.5226344466209412,-0.29894453287124634,-1.390838623046875,0.3093898594379425,0.43831709027290344,-1.4297126531600952,-0.6725239753723145,-0.1528301239013672,-1.2758947610855103,-0.06568782776594162,-0.8028340935707092,0.8590264916419983,0.8352644443511963,-0.5711236000061035,-0.4078330099582672,-0.30570533871650696,0.6420785784721375,-2.0846059322357178,1.3895819187164307,0.15624970197677612,0.4568271338939667,0.3894825875759125,0.41484346985816956,-1.1139323711395264,-0.074510358273983,-0.27895402908325195,0.323028028011322,-0.27830973267555237,0.07915796339511871,0.797440767288208,0.04828140512108803,0.633333683013916,-0.09997303783893585,-0.7882378697395325,1.3629974126815796,-0.4145311415195465,-1.9261958599090576,0.5459914207458496,-0.630070686340332,-0.841031551361084,-0.35650697350502014,0.01824643462896347,-0.8100487589836121,1.5374805927276611,-0.6456472873687744,0.038161493837833405,0.31134140491485596,-0.2613486051559448,-0.08606534451246262,-0.7922625541687012,0.21343204379081726,0.36805281043052673,-0.16663163900375366,0.27894866466522217,-1.4374080896377563,-0.9435558319091797,-1.0336540937423706,0.11923302710056305,0.15614022314548492,-0.8512914180755615,0.8527418375015259,-0.05057221278548241,-0.5114940404891968,0.9745079874992371,-0.04654432460665703,-0.8075867295265198,-0.8223997950553894,-0.043175213038921356,0.023068025708198547,0.47653928399086,0.2697487473487854,0.5112851858139038,0.9052808880805969,0.263427734375,0.16294355690479279,0.901803731918335,-0.8998847603797913,-1.7623682022094727,-0.3113858103752136,0.7284030318260193,-0.7518647313117981,0.28370675444602966,0.9514382481575012,0.3604505956172943,-0.18112218379974365,0.4676179885864258,-0.453114777803421,-0.6008651256561279,-0.30401960015296936
Classificazione statistica,-0.7811344265937805,0.016007330268621445,-0.12191495299339294,-1.3462673425674438,0.24492333829402924,0.5652725696563721,-0.39908602833747864,0.44894465804100037,0.3165974020957947,-1.019216537475586,-0.0046290201134979725,0.019036902114748955,-0.781944215297699,0.35908597707748413,0.8602095246315002,-0.19626133143901825,-1.3297120332717896,0.03993968293070793,0.4519248604774475,-0.26824653148651123,-0.29570314288139343,-1.0805267095565796,0.42681846022605896,0.3694559335708618,-0.747879683971405,-0.3519960343837738,-1.0620695352554321,-0.2160995602607727,-0.5207306742668152,0.5036948323249817,-0.3255360722541809,-0.14364871382713318,-0.3160168528556824,-0.3196870684623718,-0.7337938547134399,0.6106365919113159,-0.2608276903629303,-0.1904659867286682,-1.08148193359375,-0.3070450723171234,0.812925398349762,0.4719785451889038,0.08235930651426315,0.3413517475128174,0.4200720489025116,0.6661199927330017,0.13432255387306213,-0.675454318523407,-0.05718519166111946,0.09259794652462006,-0.8168647885322571,-0.41166895627975464,-0.8339080810546875,0.27415651082992554,0.7739164233207703,-0.06907175481319427,-0.015750795602798462,-0.14598633348941803,0.4401511251926422,0.24478323757648468,0.21949362754821777,0.710800051689148,0.3946267068386078,-0.78021639585495,0.3453369736671448,-0.03951052576303482,-0.15446601808071136,-0.497157484292984,0.604020357131958,-0.21433618664741516,0.08450069278478622,0.1037118211388588,-0.47871407866477966,0.5152730345726013,-0.5139837861061096,0.20809924602508545,-0.3182639479637146,-0.8277086615562439,-0.5276528596878052,-0.024949580430984497,-0.39147883653640747,-0.35424235463142395,0.2907198965549469,-0.12058284133672714,0.6117813587188721,-0.23339790105819702,0.5411846041679382,-1.0259391069412231,-1.2925899028778076,-0.5946776270866394,0.8221914172172546,-0.3539937138557434,-0.5819590091705322,0.432211309671402,0.2802220284938812,0.15668481588363647,0.8063028454780579,0.21034449338912964,0.032423608005046844,-0.2618236839771271
